ID,0,1,2,3,4,5,6,7,8,9,10,11,12,13,14,15,16,17,18,19,20,21,22,23,24,25,26,27,28,29,30,31,32,33,34,35,36,37,38,39,40,41,42,43,44,45,46,47,48,49,50,51,52,53,54,55,56,57,58,59,60,61,62,63,64,65,66,67,68,69,70,71,72,73,74,75,76,77,78,79,80,81,82,83,84,85,86,87,88,89,90,91,92,93,94,95,96,97,98,99
CAI14764,0.90121776,-0.760029,-4.5855975,-0.07127929,0.13790777,-1.6357414,1.8477134,-0.71492505,-0.7142421,-0.36393437,-1.382937,-0.08074286,-0.099765554,-0.7416828,-0.011594671,-0.09446948,0.010549836,-0.7386515,0.19419087,-0.22060762,-0.305522,0.0625057,-0.90130764,0.5111659,0.043229952,-0.43598813,0.018731482,-0.6673809,-0.11622754,-0.08781729,-0.09173782,0.1589528,-0.3215326,0.5388387,-0.3615386,0.37004942,0.060070027,-0.054978225,-0.07011113,-0.30898914,0.1011733,-0.5689366,0.7898901,-0.1393405,0.07976983,-0.33621475,-0.0865048,-0.018261828,0.4602424,-0.5605805,-0.46588907,0.19007522,-0.5097511,-0.37962842,-0.014926662,0.17537725,-0.07927296,-0.10864255,0.15956254,0.13243511,0.04311072,-0.22765607,0.42251834,-0.43225074,0.12474992,0.07766217,-0.407367,0.5823534,-0.033293456,0.032347973,-0.34931278,-0.19978285,-0.13254584,-0.0810889,-0.24542862,-0.6039668,-0.36141443,0.56505907,-0.460763,-0.16068032,-0.089732386,0.2562753,-0.13237342,-0.010157995,0.51581997,0.048369806,0.32205123,0.07167041,0.99265254,0.5785155,-0.16976784,-0.05575328,-0.4745398,0.01896604,-0.18213122,-0.39046523,-0.5156453,0.16487393,0.22772871,-0.3760935
1XOZ_A,0.9132451,-0.37120855,-4.582825,0.18689583,0.15959005,-1.7022302,1.925435,-0.6962048,-0.73687613,-0.3451435,-1.4338571,-0.13587467,-0.09929764,-0.7910294,0.012686882,-0.11787251,-0.020859987,-0.7659418,0.21127896,-0.20766921,-0.29653513,0.10550772,-0.910593,0.54775995,0.069507755,-0.44973716,-0.0027273737,-0.67842275,-0.10835549,-0.09912093,-0.09069878,0.14541294,-0.30002353,0.5419198,-0.36945203,0.39089134,0.07336948,-0.07522499,-0.074173726,-0.34621236,0.08719364,-0.53622115,0.7868858,-0.11179795,0.077305965,-0.3412664,-0.0725298,0.014360644,0.44938773,-0.5449528,-0.4505372,0.14019819,-0.49988365,-0.39809433,-0.03928432,0.14185685,-0.09213962,-0.094872884,0.16332541,0.12955423,0.08175471,-0.25684157,0.42627612,-0.42969844,0.11029733,0.055480894,-0.41124755,0.5868607,-0.03333176,0.07004415,-0.37102816,-0.20922141,-0.11648426,-0.08665971,-0.23704812,-0.5984131,-0.34550887,0.53732383,-0.46689186,-0.17650509,-0.07903422,0.25284642,-0.11919086,-0.03519761,0.5127991,0.046286896,0.30280665,0.057663836,0.98624295,0.5649704,-0.18589522,-0.0706077,-0.4483714,0.02058022,-0.16739969,-0.36281344,-0.5194732,0.1506938,0.22816424,-0.36277643
O77823,0.74302834,4.8210506,-1.7412934,0.60104513,0.3411618,0.66861916,1.0029297,-0.89585567,-0.45574018,-0.3912473,-0.22911517,-0.7881672,-0.24227689,-0.40535766,-0.0010387725,-0.09257375,0.11122376,-0.49321294,0.061707,-0.48906252,-0.5054388,-0.13714355,-0.9662863,0.16965926,-0.23866436,-0.16978748,0.013841966,-0.20864296,-0.25051698,0.029044736,-0.103988156,-0.09889068,-0.003870073,0.479473,-0.30814257,0.20832495,0.08879077,-0.3301629,-0.012550529,-0.0772024,-0.102398306,-0.34679914,0.7482738,-0.21267498,-0.14364213,-0.093462214,0.22703531,-0.21665762,0.3741861,-0.5406147,-0.24213985,-0.03766476,-0.41915956,-0.18056126,0.0077617867,0.039081823,0.038961794,-0.005077662,0.14647804,0.14508176,0.152407,-0.0037211662,0.1627676,-0.16333126,0.36064345,0.046291415,-0.21572654,0.53361446,0.14517672,0.057198368,0.27543753,0.06823394,-0.21258335,-0.0074954545,-0.046245344,-0.4480113,0.02511029,0.23902963,-0.25720003,-0.18900529,-0.08231493,0.16500175,-0.1536322,-0.13222568,0.34004816,0.09909899,0.1916296,-0.0760011,0.54771864,0.4960143,-0.15709828,0.0029566614,-0.13612834,0.11599453,-0.16637328,-0.46739164,-0.42477918,0.19810411,-0.022593066,-0.23035887
1QCA_A,0.8890786,2.4676697,-3.6605992,0.7021727,0.24005252,-0.87782985,1.7670288,-0.8382462,-0.6745157,-0.3907856,-1.0674071,-0.5319661,-0.19846517,-0.7138074,0.028835522,-0.13697721,0.019096801,-0.7157612,0.17270195,-0.3587929,-0.44962215,0.03639494,-1.0094973,0.41483095,-0.07731596,-0.36141336,-0.00039106858,-0.5334162,-0.18802403,-0.035976987,-0.13893548,0.03359439,-0.15259148,0.55420077,-0.3874394,0.33537453,0.11513205,-0.24343441,-0.04259291,-0.286614,-0.031734645,-0.47665834,0.84341115,-0.15474902,-0.038980477,-0.23457241,0.09514262,-0.09168957,0.41108266,-0.5914911,-0.38239917,0.022776365,-0.506527,-0.3242913,-0.030454587,0.07491601,-0.042532057,-0.08123061,0.1578534,0.14699453,0.1757898,-0.14339639,0.33088332,-0.32717088,0.22265188,0.01764632,-0.3715051,0.6005152,0.05195506,0.098792456,-0.07476278,-0.09806045,-0.17769054,-0.056468055,-0.15433589,-0.5726145,-0.16938357,0.4152849,-0.42722443,-0.2060771,-0.06676287,0.22862744,-0.1657836,-0.1304933,0.46514887,0.10546599,0.25200203,-0.011676717,0.8573647,0.5877061,-0.1987052,-0.06673807,-0.31613916,0.083503574,-0.19148114,-0.42125875,-0.5154519,0.17600141,0.11844543,-0.2963851
Q99VQ4,0.91978836,-1.8472908,-5.2472816,-0.045192953,0.17116965,-2.2529633,2.0822656,-0.58883655,-0.78419507,-0.32106808,-1.7065222,0.08586464,-0.035672612,-0.8568909,0.0034898925,-0.14152749,-0.038962685,-0.8019536,0.24266571,-0.11457286,-0.19749698,0.15163364,-0.82657176,0.6293163,0.16712639,-0.49025884,-0.006667594,-0.7479321,-0.052529592,-0.14247935,-0.048380427,0.23387395,-0.39991993,0.5314774,-0.3516503,0.4380843,0.039974637,0.03985887,-0.096087,-0.39451703,0.1422305,-0.55288273,0.75227624,-0.08408834,0.14506744,-0.39668393,-0.1520628,0.06927027,0.45809248,-0.51994187,-0.49393597,0.20600602,-0.4879485,-0.44867164,-0.06487976,0.16343004,-0.10542284,-0.07213831,0.17014684,0.12637568,0.036347903,-0.32159588,0.4951951,-0.49556237,0.05249459,0.08818776,-0.4194272,0.5892044,-0.07501311,0.06456589,-0.53988737,-0.2943368,-0.05143446,-0.096384384,-0.29383913,-0.60556394,-0.4251658,0.5797143,-0.50193006,-0.15624426,-0.08374373,0.26596847,-0.054726165,0.028262243,0.54258955,0.013361489,0.32703677,0.075164385,1.0504328,0.5385861,-0.19256593,-0.07288409,-0.51384413,-0.01678203,-0.12423444,-0.3036592,-0.5127273,0.12951836,0.28564882,-0.39275926
Q4U254,0.9269714,0.024419054,-4.300248,0.06017958,0.094139725,-1.2860471,1.7398354,-0.797055,-0.6883681,-0.3958406,-1.2401928,-0.20646366,-0.14922659,-0.7302565,0.013600988,-0.07073536,-0.024454746,-0.74405795,0.19857973,-0.26888138,-0.35098308,0.07386248,-0.99256545,0.53913474,0.026446093,-0.44177485,0.01581674,-0.6487873,-0.1298478,-0.08974372,-0.108938664,0.08282829,-0.25067893,0.58516145,-0.39333913,0.38812977,0.076101646,-0.12252997,-0.072577685,-0.29829276,0.090322845,-0.5515022,0.8236518,-0.14499992,0.059942964,-0.32156393,-0.06140235,-0.029030299,0.49879456,-0.56499165,-0.44787177,0.121925846,-0.5171609,-0.3877665,-0.011961648,0.15770996,-0.0894368,-0.11185344,0.17476918,0.1399619,0.071477905,-0.24166746,0.39669585,-0.41132122,0.15605287,0.05349781,-0.4054866,0.5948316,-0.023252767,0.03772033,-0.29496533,-0.15137902,-0.14720774,-0.07875951,-0.2109825,-0.61735296,-0.34300986,0.5701182,-0.44781768,-0.17259048,-0.093306005,0.26318967,-0.16125764,-0.040192414,0.516786,0.047444317,0.30058596,0.066605106,1.0111836,0.59243894,-0.18060318,-0.04860047,-0.45485955,0.033775028,-0.2053929,-0.42990547,-0.56988823,0.16764472,0.20979406,-0.36817616
Q9UUZ4,0.85667455,-3.2893682,-4.966096,-0.6855686,0.240855,-2.1441464,1.7883195,-0.44219097,-0.71746427,-0.2753636,-1.562173,0.35123065,0.050775304,-0.73563623,-0.033572417,-0.15681478,-0.031899534,-0.71859,0.21352986,-0.046272367,-0.0857568,0.1138079,-0.64306796,0.5744503,0.18539122,-0.43556812,0.0028110822,-0.69169813,0.0061551095,-0.1721027,0.029842304,0.3520372,-0.5102218,0.45099053,-0.25080368,0.4260322,-0.047394343,0.15608568,-0.12768501,-0.32052064,0.1773902,-0.54012173,0.66349125,-0.11931441,0.16446562,-0.4197546,-0.22863723,0.07622143,0.43079582,-0.50412977,-0.5019998,0.36197782,-0.4362586,-0.4402237,-0.07139433,0.20776567,-0.09795129,0.019905811,0.15949808,0.13631329,-0.05130941,-0.28792134,0.5163134,-0.5114588,0.051630344,0.16320002,-0.3643913,0.53174895,-0.066489264,0.020249272,-0.5892135,-0.34265575,0.040229276,-0.091661796,-0.37209293,-0.5762435,-0.45354304,0.5467739,-0.4955396,-0.09361671,-0.12823288,0.24611321,0.066799864,0.13794239,0.5717692,-0.04907609,0.32167256,0.063383766,0.99104995,0.4196178,-0.14231469,-0.009714988,-0.53242636,-0.050201096,-0.058254488,-0.27316695,-0.39605772,0.14854552,0.29327747,-0.4254761
P04174,0.80738723,3.8999357,-2.4591289,0.5937486,0.29331118,0.042951964,1.2745861,-0.8755378,-0.53678155,-0.40400958,-0.5447408,-0.6888063,-0.231526,-0.49844113,0.004092429,-0.10758818,0.06685693,-0.5640716,0.09499509,-0.43653846,-0.48545787,-0.063952394,-0.99570566,0.25664353,-0.18815206,-0.2381041,0.015506,-0.32232133,-0.2154211,0.010758726,-0.12515089,-0.044893645,-0.06286132,0.50930655,-0.3328015,0.24375312,0.091016605,-0.29543403,-0.02529257,-0.1457207,-0.07240938,-0.3885504,0.78141475,-0.19564413,-0.117276065,-0.16131975,0.17251258,-0.180198,0.38751408,-0.5677581,-0.3038461,-0.002588008,-0.45119193,-0.22965379,-0.020261096,0.05956281,0.005026197,-0.026018016,0.14743437,0.14450416,0.18096876,-0.047855522,0.22908431,-0.21300964,0.3110682,0.03562931,-0.28410405,0.52870446,0.10467787,0.07347716,0.15297934,0.003011069,-0.19596973,-0.029693197,-0.10574719,-0.49908856,-0.05030911,0.30663928,-0.33761555,-0.18341081,-0.09108012,0.1799989,-0.14545013,-0.12609926,0.38359332,0.08744052,0.20528543,-0.051537894,0.6753145,0.5208543,-0.16133958,-0.019286243,-0.20346732,0.10260755,-0.19094144,-0.4535799,-0.45148072,0.21395436,0.026277822,-0.25431976
2XTK_A,0.8688136,1.2208176,-3.984228,0.5500705,0.23320897,-1.3299471,1.8516072,-0.7205226,-0.7026944,-0.3364969,-1.2421442,-0.34665522,-0.13472338,-0.743997,0.021733208,-0.13631774,0.017263353,-0.7226977,0.184834,-0.26410034,-0.3597641,0.061816905,-0.9180249,0.44618702,-0.013021701,-0.38890493,-0.00981603,-0.57996005,-0.15195623,-0.05673081,-0.11040381,0.09789962,-0.21514781,0.5104428,-0.36148793,0.33858418,0.0974172,-0.15922467,-0.049513634,-0.31870064,0.015585142,-0.4768007,0.78102154,-0.11627262,0.011084073,-0.2817032,0.02160752,-0.02964457,0.39019546,-0.5429356,-0.39260903,0.07594445,-0.4838051,-0.3450508,-0.039295245,0.09565349,-0.052765474,-0.08480105,0.14660005,0.12809618,0.13779637,-0.1849727,0.36338782,-0.35342103,0.1545558,0.034410764,-0.38168862,0.57331353,0.022855246,0.09617619,-0.20943657,-0.15616132,-0.15415458,-0.07599954,-0.18309534,-0.5582671,-0.23471461,0.4349097,-0.43151993,-0.19840406,-0.05777601,0.22407952,-0.12807237,-0.093915194,0.45749545,0.0802996,0.26797426,0.016489591,0.85869056,0.55617505,-0.18474732,-0.074777395,-0.34880036,0.053897675,-0.16586353,-0.3657258,-0.4767036,0.161849,0.16024396,-0.3125324
3AXZ_A,0.8987049,1.4399313,-3.7201898,0.23957926,0.18728985,-0.8075154,1.605707,-0.8467729,-0.6523427,-0.4107053,-1.0064816,-0.39639917,-0.18620695,-0.6665179,0.014063312,-0.108507484,0.008648905,-0.706732,0.17416658,-0.34595767,-0.429004,0.022352332,-1.003674,0.43084356,-0.06753583,-0.37367555,0.022139024,-0.55663234,-0.16620858,-0.055260573,-0.1254097,0.07293542,-0.20452055,0.5652094,-0.37670693,0.35139468,0.08235054,-0.20002787,-0.05992745,-0.2564877,0.010902314,-0.5215193,0.8489833,-0.18524314,-0.016320705,-0.26195225,0.032310363,-0.09909581,0.4517088,-0.6127666,-0.41882464,0.104928076,-0.519269,-0.3391202,-0.013768898,0.12523495,-0.051859815,-0.07798051,0.16307372,0.1585146,0.121504165,-0.14543468,0.35617638,-0.3589181,0.22493084,0.050282612,-0.378394,0.59635854,0.04163204,0.052838348,-0.11763071,-0.110511445,-0.15743296,-0.05970259,-0.19462906,-0.6032315,-0.23260134,0.4785556,-0.4438299,-0.17597315,-0.095902,0.24373868,-0.15259753,-0.0755248,0.5086989,0.0787907,0.26794156,0.010655544,0.92164963,0.5819512,-0.17782626,-0.03318286,-0.38166407,0.07071063,-0.20069215,-0.4557329,-0.5223897,0.19261457,0.14192042,-0.3378035
1FKB_A,0.74401367,4.8614006,-1.7835402,0.6651821,0.34787613,0.5929973,1.0454963,-0.88608205,-0.4640224,-0.38605085,-0.26439017,-0.79152006,-0.23954879,-0.41840294,0.0010272812,-0.097950235,0.11035616,-0.49872792,0.06443995,-0.4832274,-0.5022168,-0.13069634,-0.9623438,0.17290395,-0.23347227,-0.17264201,0.010966238,-0.21350907,-0.24991333,0.028563324,-0.10427554,-0.09627488,-0.004090698,0.4761627,-0.30880216,0.20883517,0.09238285,-0.32888353,-0.0115320785,-0.08660056,-0.104237534,-0.3433887,0.7461769,-0.20588961,-0.14284666,-0.09497578,0.22941244,-0.21082878,0.3674478,-0.5374609,-0.24171072,-0.042012468,-0.41758314,-0.18229647,0.0031591493,0.034378752,0.037648562,-0.005693225,0.14506397,0.14327782,0.1579438,-0.007158256,0.16599226,-0.16366845,0.35444358,0.04234061,-0.21899885,0.5334088,0.14392966,0.06362502,0.26786456,0.062354136,-0.21205758,-0.009575398,-0.046642166,-0.44498062,0.026651105,0.23476379,-0.25933272,-0.19158559,-0.07911301,0.16409002,-0.15255627,-0.13681552,0.33670735,0.10076129,0.19120063,-0.076717265,0.5437867,0.49601078,-0.1593386,-0.0035034476,-0.13229366,0.115165055,-0.16441274,-0.45869994,-0.42224783,0.19581933,-0.020736057,-0.22724468
P0A7T7,0.70996106,5.423087,-1.3994523,0.6455988,0.36667845,0.9594739,0.86443543,-0.90564007,-0.41173813,-0.38629344,-0.06789807,-0.8352184,-0.24610496,-0.35655472,-0.0015737711,-0.07942323,0.13401547,-0.46181345,0.05070385,-0.5125526,-0.51632273,-0.17910431,-0.9524464,0.123658605,-0.2607091,-0.14005816,0.018608497,-0.15450838,-0.26569587,0.030657072,-0.08862005,-0.11161046,0.022271067,0.46171418,-0.29609329,0.2007804,0.087011576,-0.34628227,-0.008995401,-0.04453281,-0.11669719,-0.3304128,0.7371132,-0.22626647,-0.1556181,-0.058902595,0.2465278,-0.23988703,0.36903563,-0.53136,-0.21584712,-0.042768776,-0.40591568,-0.16216245,0.023450544,0.037863504,0.05805799,0.0021873352,0.1428528,0.14853132,0.13081254,0.023301458,0.14030913,-0.1388643,0.3839792,0.053400714,-0.18703963,0.54238933,0.17536373,0.043379165,0.33492756,0.099811554,-0.22262464,-0.0025067693,-0.022957187,-0.4281081,0.05716354,0.20732822,-0.22189859,-0.18848936,-0.07930467,0.16238616,-0.1552337,-0.1299244,0.32312834,0.10614528,0.18516055,-0.08568924,0.48662502,0.48445994,-0.15146884,0.017398514,-0.11181089,0.12039058,-0.15425558,-0.48200062,-0.4105624,0.18926226,-0.046707414,-0.22663891
Q95KY9,0.86134976,-1.2461708,-5.1134505,0.45264858,0.26821333,-2.5675137,2.2722607,-0.46562624,-0.81535196,-0.23263633,-1.8276819,0.03258398,0.0027042918,-0.90373147,0.017013548,-0.18258314,-0.008629938,-0.7901567,0.23277484,-0.058319837,-0.15908122,0.16624543,-0.7309759,0.5750751,0.17245,-0.46853992,-0.039496586,-0.7187353,-0.058800127,-0.11916308,-0.04607521,0.24486421,-0.3709689,0.44727352,-0.325352,0.38902253,0.06612081,0.035593215,-0.07317539,-0.44013792,0.103537,-0.476667,0.67675483,-0.018423673,0.13075836,-0.38489968,-0.11505811,0.1166761,0.3524067,-0.45257056,-0.43572485,0.15397887,-0.44472745,-0.42243823,-0.09202176,0.11000279,-0.088686414,-0.073078625,0.13944197,0.095623784,0.08557937,-0.31007257,0.4690517,-0.44671854,0.001996556,0.05855995,-0.41104728,0.55002624,-0.061895907,0.12590308,-0.5445184,-0.31517634,-0.06927301,-0.10724379,-0.2622602,-0.5379763,-0.36529106,0.4717253,-0.4734166,-0.18689689,-0.035279054,0.22438307,-0.03216371,-0.023778379,0.46427733,0.034355395,0.3033292,0.057940494,0.90626156,0.50185704,-0.19141413,-0.11704781,-0.42463884,-0.013211546,-0.08983777,-0.21200979,-0.42364103,0.10896372,0.26547754,-0.34082034
2QHC_A,0.7434191,5.183994,-1.6650128,0.68504184,0.35685444,0.76026046,1.0122318,-0.9112779,-0.4699333,-0.39118367,-0.2150723,-0.8509408,-0.25462824,-0.42191848,-9.2351336e-05,-0.112993695,0.11701819,-0.5018272,0.06001904,-0.5129214,-0.5333645,-0.1347459,-0.9772983,0.1607539,-0.26024035,-0.16186386,-0.0011594876,-0.20190653,-0.2703633,0.046588946,-0.12020084,-0.120238006,0.012136992,0.48806807,-0.3148823,0.19885023,0.102993056,-0.36160344,-0.0034413214,-0.084075645,-0.12788765,-0.34176522,0.7591161,-0.21256155,-0.16018796,-0.081043534,0.26091197,-0.2205235,0.3643961,-0.5501216,-0.22904511,-0.06787074,-0.42646268,-0.1675141,0.007758739,0.01591211,0.04499173,-0.006123094,0.1487565,0.14340985,0.17696086,0.003481347,0.14379154,-0.15743262,0.37207544,0.03800491,-0.21006355,0.5428934,0.1488526,0.07670622,0.30846742,0.0788189,-0.22137193,0.003444848,-0.02568017,-0.4481358,0.05662566,0.21711959,-0.25833073,-0.20872505,-0.07009806,0.16103937,-0.16705239,-0.15837306,0.33810422,0.115599185,0.18758604,-0.09319089,0.5361013,0.5087694,-0.17257465,-0.0039403676,-0.11369508,0.13117872,-0.16438307,-0.46647707,-0.42735875,0.19438963,-0.036176763,-0.21486726
Q8NEV1,0.9465747,-0.8155658,-4.9207945,0.101571836,0.13880393,-1.8593639,2.012838,-0.71465176,-0.76952237,-0.36345127,-1.5418049,-0.08692005,-0.09719377,-0.8321066,0.007861514,-0.124841936,-0.033960056,-0.8035231,0.22839646,-0.20475851,-0.29842818,0.12463829,-0.9309057,0.59014964,0.09194652,-0.47898492,0.0011941377,-0.7331958,-0.10150475,-0.11125248,-0.094772644,0.16817434,-0.3384968,0.56933784,-0.38408986,0.4177616,0.0727035,-0.0561936,-0.08138782,-0.36736578,0.10236781,-0.5779083,0.81873804,-0.119741105,0.09570028,-0.36065796,-0.091568284,0.01927445,0.4753532,-0.5728291,-0.48674843,0.16212781,-0.52311474,-0.41930678,-0.038535222,0.15727712,-0.10709315,-0.104089096,0.17193268,0.13619994,0.07281614,-0.2773898,0.4588913,-0.47010064,0.101684935,0.060016323,-0.43412575,0.6117764,-0.05221411,0.06442195,-0.42194203,-0.23340993,-0.10471847,-0.08804657,-0.2623929,-0.6295284,-0.3819818,0.58472407,-0.49867263,-0.17265902,-0.08816904,0.27230477,-0.12853672,-0.022003738,0.5500702,0.046024304,0.32305613,0.06698949,1.06097,0.58963317,-0.19589335,-0.07499279,-0.49441388,0.014460147,-0.17488456,-0.37215525,-0.5495069,0.14859124,0.2548173,-0.38434777
1LFO_A,0.82284427,4.9715657,-1.9663602,0.6008701,0.28659385,0.7812087,1.0524843,-1.0222973,-0.47794902,-0.4715314,-0.2438681,-0.86383265,-0.30190718,-0.44569585,0.008222995,-0.09471589,0.07956051,-0.55446845,0.08027042,-0.5653748,-0.58884317,-0.119667195,-1.0836225,0.22599323,-0.2590883,-0.20296235,0.030375514,-0.2691665,-0.26594567,0.024429657,-0.14355913,-0.1262616,-0.0030301986,0.5714311,-0.3641719,0.25613952,0.10066096,-0.3843579,-0.02334707,-0.087266564,-0.11755776,-0.41610217,0.8611641,-0.2603738,-0.15582591,-0.090959154,0.24648821,-0.25719863,0.44161007,-0.6278182,-0.29255006,-0.05016935,-0.48429546,-0.20992625,0.018517429,0.047234777,0.018725794,-0.023057345,0.17239097,0.1762224,0.1724057,-0.0039727376,0.18447255,-0.20821847,0.40593103,0.034475375,-0.24999815,0.5957039,0.13833626,0.04973949,0.30414578,0.084225394,-0.21792433,0.007827221,-0.061438344,-0.5235785,0.012160623,0.3079207,-0.31091973,-0.19068192,-0.10249931,0.19999187,-0.20264545,-0.14846854,0.41752768,0.12099868,0.20248832,-0.07979281,0.67599034,0.5663661,-0.1839836,0.008501871,-0.18963207,0.1370068,-0.20743877,-0.53932065,-0.51532584,0.20961826,-0.015364886,-0.25226814
Q9HWR2,0.8853197,1.3581263,-3.476182,0.06637987,0.16124508,-0.58065414,1.4522165,-0.8680072,-0.60556567,-0.4262668,-0.8749007,-0.38598257,-0.19582614,-0.60258543,0.0060619577,-0.07685412,0.015836762,-0.6679812,0.1565525,-0.36287233,-0.4309475,-0.0072390353,-1.0087312,0.40984583,-0.08598357,-0.35481328,0.03427177,-0.5174807,-0.16690569,-0.052936208,-0.118652485,0.05091707,-0.18901816,0.56817025,-0.36976942,0.34101105,0.06782616,-0.20079204,-0.061806206,-0.21288912,0.02188492,-0.51728934,0.8395018,-0.20343024,-0.019597547,-0.25119612,0.023552498,-0.12144289,0.47183937,-0.6052413,-0.40966496,0.11581506,-0.5116626,-0.32757372,0.0012983342,0.14151077,-0.044214264,-0.07401749,0.16598126,0.16091262,0.09483626,-0.13295451,0.3356004,-0.34253523,0.24719578,0.06304548,-0.35797143,0.58361554,0.0463711,0.025513299,-0.0814195,-0.080963045,-0.16427177,-0.05396733,-0.18544444,-0.5978756,-0.23240851,0.4847459,-0.41957214,-0.16303088,-0.10728861,0.24121703,-0.15401481,-0.057908326,0.49968225,0.06785231,0.26509756,0.01717328,0.9060846,0.572446,-0.16438738,-0.010875627,-0.38125557,0.069519006,-0.20817311,-0.48130012,-0.52682626,0.20150521,0.12979577,-0.34134752
1N43_A,0.69188064,5.164412,-1.4741426,0.7435648,0.3899339,0.7297828,0.9589878,-0.84031385,-0.43396997,-0.34882528,-0.16529281,-0.80412674,-0.22046804,-0.37795573,-0.003906684,-0.097347625,0.13839446,-0.45558006,0.047481775,-0.4729011,-0.4806944,-0.1604388,-0.90652794,0.120313674,-0.24395378,-0.1369068,0.0026773568,-0.15236856,-0.25754356,0.038174745,-0.083570346,-0.10252087,0.015547123,0.42960286,-0.2797807,0.1777644,0.08983413,-0.3230691,-0.0015482773,-0.06329711,-0.113275364,-0.30221382,0.69274336,-0.19219474,-0.14963065,-0.072553866,0.2457213,-0.20753333,0.33345205,-0.49705938,-0.20123713,-0.052957747,-0.3823848,-0.15301083,0.0063321046,0.020985112,0.05723994,0.008167276,0.13357644,0.1310919,0.14715388,0.009097965,0.13588467,-0.12945314,0.35274643,0.048279613,-0.18499893,0.51251566,0.16197714,0.065355934,0.2991937,0.07639503,-0.21591936,-0.00814958,-0.02072419,-0.3984997,0.060547564,0.18137881,-0.21433997,-0.19494896,-0.06713549,0.14509602,-0.13734135,-0.13664083,0.2922036,0.09862974,0.18197088,-0.08620027,0.44762522,0.46225226,-0.14972502,-0.0009498695,-0.08628791,0.11312632,-0.13991487,-0.43353215,-0.37686595,0.18521723,-0.040919665,-0.20940384
1RBP_A,0.8326646,3.3129668,-2.9272592,0.6519422,0.27920797,-0.34876555,1.478537,-0.8522467,-0.5887269,-0.39267159,-0.75693107,-0.61353797,-0.21368319,-0.59013027,0.017833797,-0.11913902,0.052085154,-0.6278732,0.13123256,-0.4007317,-0.46624857,-0.03013158,-0.987646,0.31859678,-0.13937794,-0.28839535,0.010692391,-0.40929946,-0.20433453,-0.014660916,-0.123859875,-0.0029688638,-0.10170136,0.5209566,-0.35337132,0.2883416,0.09856766,-0.2702279,-0.034374297,-0.20545793,-0.056164216,-0.4264209,0.80628866,-0.17951071,-0.079917744,-0.18637064,0.13604428,-0.1422732,0.39341548,-0.5746035,-0.33472925,0.015795313,-0.47249368,-0.27300444,-0.019280978,0.06787916,-0.009591543,-0.04761507,0.15068024,0.14916341,0.16581412,-0.08406406,0.27361405,-0.26359615,0.27467078,0.03240039,-0.31577793,0.5679983,0.09144832,0.07868117,0.05701595,-0.04108127,-0.18591203,-0.04136014,-0.12398517,-0.5279512,-0.10065553,0.34900022,-0.36984897,-0.1924059,-0.07715739,0.2034282,-0.14964093,-0.12420629,0.42044258,0.09888162,0.22600932,-0.035286296,0.7416005,0.5461571,-0.1763496,-0.035579585,-0.25230643,0.09455201,-0.18265125,-0.43931276,-0.47313014,0.19233267,0.06462809,-0.27413878
Q6KCB6,0.93830955,-1.1386958,-4.4537697,-0.22729865,0.075167336,-1.4055917,1.6511706,-0.7227431,-0.67414784,-0.38266072,-1.2823875,-0.027639547,-0.10555746,-0.72907966,0.018891014,-0.06295657,-0.078891784,-0.74436086,0.21570432,-0.20309488,-0.2542126,0.11973992,-0.93726385,0.6281044,0.11468183,-0.46644723,0.010652021,-0.6712623,-0.06691163,-0.14432992,-0.0575356,0.11469554,-0.3038861,0.5915065,-0.37143335,0.44262382,0.031202743,-0.04208126,-0.10750492,-0.30160412,0.15033416,-0.53726083,0.78187597,-0.13065027,0.11340878,-0.36647004,-0.14394899,0.022830052,0.5408756,-0.5265615,-0.46389621,0.16042426,-0.48846343,-0.43913543,-0.03384601,0.17589834,-0.11821007,-0.06430238,0.19415773,0.1430816,0.023340605,-0.31439728,0.43511102,-0.45261332,0.12824726,0.0810778,-0.38766697,0.581126,-0.058977094,0.024028081,-0.4217417,-0.18920276,-0.0727042,-0.08411179,-0.25159022,-0.619618,-0.41088098,0.60104704,-0.45270425,-0.14337903,-0.11821619,0.27064472,-0.092733,0.027257523,0.5470703,-0.012138831,0.29700744,0.08063931,1.0534654,0.53384966,-0.17697419,-0.022582171,-0.49843574,-0.002143753,-0.16809417,-0.40094462,-0.5760746,0.15266658,0.24976842,-0.39845887
P00761,0.7808118,2.9128642,-2.6834931,0.8959294,0.27631527,-0.7807578,1.5045804,-0.7494764,-0.6130123,-0.34439114,-0.83730376,-0.5800277,-0.17592639,-0.5693128,-0.0013310683,-0.11216109,0.06678822,-0.61729443,0.14534746,-0.32860038,-0.43649375,-0.030826798,-0.9348507,0.28335887,-0.14169233,-0.30290148,-0.016307041,-0.4058573,-0.20122653,0.0020855332,-0.12214602,0.052858632,-0.11554037,0.45678535,-0.3225219,0.25726986,0.09920083,-0.25182295,-0.019892968,-0.23100422,-0.044470962,-0.39352098,0.74076784,-0.14936116,-0.08111134,-0.23329468,0.09967607,-0.11642897,0.34261516,-0.5288774,-0.3141484,0.040546414,-0.44716412,-0.25228179,-0.026392208,0.085490376,0.021975834,-0.06857262,0.11446674,0.11521113,0.18022831,-0.082287416,0.2691266,-0.22137833,0.21496136,0.04843153,-0.33565512,0.5179391,0.111896195,0.08788364,0.01732404,-0.068976015,-0.20328157,-0.07952644,-0.12442932,-0.52382135,-0.11564595,0.33089995,-0.38445595,-0.21124706,-0.054378677,0.18911423,-0.11429167,-0.11406551,0.37181303,0.08598853,0.22506,-0.025045166,0.6968157,0.5166564,-0.1542364,-0.032922875,-0.2421934,0.08610971,-0.17679451,-0.41692215,-0.4090757,0.20708644,0.06075541,-0.27784517
1HK3_A,0.8749395,-1.7289218,-4.5590725,-0.2786634,0.06538685,-1.6914482,1.7123147,-0.64265656,-0.6626154,-0.34476483,-1.3669946,0.058605716,-0.07187669,-0.6979931,-0.010404333,-0.027905645,-0.01295558,-0.69194573,0.18961315,-0.1516506,-0.20685264,0.07963925,-0.85940844,0.57165366,0.114982784,-0.4497232,0.013762622,-0.6370587,-0.07073814,-0.11846639,-0.049223576,0.12146404,-0.30382574,0.5335978,-0.34977722,0.38558036,0.028546268,0.009829473,-0.083287835,-0.29052165,0.17366657,-0.5149811,0.7028188,-0.09790476,0.13699706,-0.3652507,-0.16761906,0.028428877,0.5008162,-0.4512029,-0.43804052,0.17449519,-0.45570356,-0.4046792,-0.015811991,0.19646408,-0.08368362,-0.10009837,0.17005697,0.110208236,-0.017879954,-0.30799806,0.40729696,-0.4182697,0.08980815,0.09608022,-0.36946553,0.53938967,-0.07319643,0.0050782063,-0.44253272,-0.18936165,-0.11605246,-0.09117046,-0.2239011,-0.57004285,-0.417363,0.58879507,-0.40496904,-0.1453308,-0.08934859,0.24792132,-0.096134335,0.039102722,0.46162575,-0.006586157,0.3183029,0.1123621,0.96990514,0.5278411,-0.1567101,-0.036979407,-0.4819878,-0.018510714,-0.1644872,-0.36088133,-0.53737414,0.14456557,0.24753387,-0.37920696
Q31FD6,0.91672957,1.136854,-3.8972657,0.1971695,0.14703667,-0.8999866,1.6437289,-0.8574336,-0.6591587,-0.4199358,-1.0623028,-0.36267236,-0.18746144,-0.6844451,0.014623861,-0.091457166,-0.0032243964,-0.71939236,0.17973669,-0.33960027,-0.41994777,0.036083803,-1.0226622,0.46729827,-0.04577983,-0.39467052,0.022358026,-0.5832991,-0.16045563,-0.063740894,-0.1263961,0.059489455,-0.2081712,0.5860506,-0.3909465,0.36570996,0.08377833,-0.18914379,-0.063437544,-0.26461107,0.03171279,-0.53580225,0.8554199,-0.17993489,0.0031195446,-0.2737832,0.011690144,-0.08718888,0.47791773,-0.60577214,-0.4289497,0.09934721,-0.5250354,-0.35413045,-0.009386709,0.1347053,-0.06476701,-0.092309885,0.17104559,0.15590061,0.108400434,-0.1739709,0.36383188,-0.37469843,0.21477881,0.047628857,-0.3863814,0.6030823,0.020918148,0.045943256,-0.15598613,-0.11157272,-0.16065472,-0.061693937,-0.19399847,-0.61348784,-0.2618902,0.51295334,-0.44436726,-0.17594358,-0.09720192,0.25317428,-0.16716738,-0.0700735,0.51433754,0.07321766,0.27851078,0.027760357,0.96018016,0.59567463,-0.18261585,-0.037335172,-0.40471578,0.062689975,-0.21004795,-0.46059376,-0.5533545,0.18576258,0.15933321,-0.34619838
P0A4L9,0.90238065,-2.3461833,-4.5802736,-0.8008113,0.10071575,-1.4405675,1.5364866,-0.6857322,-0.64885896,-0.3901229,-1.2600955,0.15739197,-0.068316184,-0.65235025,-0.027902877,-0.06402841,-0.022768296,-0.6987685,0.19520625,-0.18762372,-0.22633241,0.05265113,-0.8484354,0.5585213,0.092057556,-0.43277907,0.046714555,-0.6539216,-0.055187717,-0.1407342,-0.03299321,0.21140054,-0.3975046,0.55394775,-0.32416928,0.41723827,-0.016888654,0.04128163,-0.112382606,-0.24801007,0.17378883,-0.5891857,0.76424366,-0.17755833,0.12583525,-0.36924094,-0.18398614,-0.020564979,0.5307196,-0.5599946,-0.5041287,0.3007158,-0.49371484,-0.41666064,-0.0117018325,0.23300175,-0.08982644,-0.046220522,0.18333428,0.15640429,-0.05127001,-0.25578314,0.4589828,-0.47892016,0.14284568,0.14378355,-0.3713613,0.56832373,-0.05281355,-0.034744494,-0.42215917,-0.22031324,-0.050457284,-0.07353855,-0.3065646,-0.62199897,-0.4393288,0.62436837,-0.46453637,-0.10053074,-0.14362228,0.27206194,-0.055606,0.10180675,0.5755557,-0.019950567,0.32739237,0.086588554,1.0549525,0.51961255,-0.14594603,0.012669025,-0.549509,-0.013270257,-0.15397023,-0.41222873,-0.5216429,0.17642273,0.25685385,-0.42954832
AAC57158,0.82017046,0.23916218,-3.1773632,-0.4951422,0.17603545,-0.3997471,1.1547337,-0.7740443,-0.5251695,-0.394605,-0.7056797,-0.18768215,-0.14115521,-0.48071948,-0.019209662,-0.047621414,0.03908407,-0.5769587,0.12325204,-0.3109693,-0.33973116,-0.055645104,-0.88466555,0.36193082,-0.07215865,-0.30862007,0.054555103,-0.44770715,-0.1276516,-0.069514245,-0.060953453,0.09831775,-0.23646039,0.5072843,-0.30237806,0.31489205,0.0061101275,-0.10943291,-0.07701926,-0.13826114,0.06943479,-0.49368566,0.74986714,-0.21451095,0.0062552392,-0.257227,-0.042947818,-0.12004688,0.4644997,-0.5576432,-0.3973738,0.21267946,-0.46287957,-0.3127839,0.0104364725,0.18091959,-0.03009755,-0.027476767,0.15961106,0.1589215,0.008040782,-0.11714515,0.32864088,-0.3334944,0.24597773,0.11746755,-0.30382684,0.5271463,0.04418642,-0.026310109,-0.10494764,-0.08724907,-0.124433056,-0.049156785,-0.21202616,-0.5539011,-0.2608348,0.47067574,-0.37405592,-0.11634062,-0.13128383,0.22010532,-0.08445932,0.024203537,0.4828872,0.019176094,0.2621691,0.029842682,0.83258015,0.49241936,-0.12012692,0.03588924,-0.3895956,0.04209524,-0.17113337,-0.46114665,-0.45618466,0.2094663,0.1311311,-0.35741693
3G6M_A,0.8910021,0.6941633,-4.2231336,0.5321158,0.23401284,-1.5170178,1.9642593,-0.703455,-0.7370026,-0.33376777,-1.3651996,-0.31037706,-0.12130426,-0.79260504,0.02318255,-0.15171333,0.002750465,-0.7552732,0.1988877,-0.24494234,-0.34395424,0.09138672,-0.9149407,0.484246,0.019503519,-0.4127919,-0.0149754975,-0.6243956,-0.13840748,-0.06914776,-0.10833875,0.119508535,-0.24514478,0.51932806,-0.3680454,0.36002502,0.09916549,-0.13895556,-0.055811785,-0.3505539,0.023173995,-0.49147433,0.790683,-0.10748869,0.02750499,-0.299835,0.0074103554,-0.010017684,0.3953657,-0.549937,-0.412124,0.0810681,-0.49216023,-0.36575234,-0.05133,0.095812745,-0.06800945,-0.08695571,0.1507098,0.12765253,0.141054,-0.2093121,0.39170593,-0.38130903,0.1337484,0.030890066,-0.39886525,0.5854602,0.004606874,0.108249456,-0.26553494,-0.1842012,-0.1394621,-0.079322964,-0.20365241,-0.5718508,-0.25670946,0.45324302,-0.4559044,-0.19902022,-0.058192387,0.23165137,-0.123542875,-0.08941512,0.47690502,0.07872569,0.2765312,0.020112747,0.899585,0.5630932,-0.19480717,-0.08725138,-0.37248418,0.045633957,-0.16072768,-0.35030767,-0.48690763,0.15253672,0.18199578,-0.32164782
1AJ6_A,0.8703204,3.1371708,-3.0653963,0.52409005,0.23326284,-0.26978958,1.4613851,-0.9150798,-0.59111655,-0.43278128,-0.75244606,-0.6144175,-0.23837987,-0.59679484,0.01962002,-0.10580406,0.034888655,-0.6505953,0.13940325,-0.42934573,-0.49525005,-0.025313992,-1.0440605,0.35101193,-0.1428382,-0.3083691,0.022735603,-0.440933,-0.20647797,-0.021963028,-0.13787892,-0.013893802,-0.106738046,0.56601,-0.37837523,0.31332752,0.097985104,-0.28389996,-0.042354144,-0.20278427,-0.04842909,-0.46510816,0.85432285,-0.20343661,-0.076792635,-0.19162962,0.12685548,-0.15871274,0.43603137,-0.6102782,-0.362671,0.023467178,-0.5018233,-0.29042414,-0.008913352,0.08401859,-0.02172982,-0.05933735,0.1636597,0.16333447,0.15941344,-0.09035809,0.28631362,-0.28809756,0.29262668,0.032512154,-0.33206412,0.5924292,0.08341201,0.06305066,0.056207772,-0.033630725,-0.18818356,-0.037048474,-0.13473405,-0.56569016,-0.1244112,0.3978951,-0.39157698,-0.18701443,-0.0909819,0.22286752,-0.17258112,-0.120015934,0.45835924,0.10128491,0.23517531,-0.026875839,0.81595457,0.5771271,-0.1830747,-0.027140802,-0.29011557,0.099016346,-0.20543346,-0.4791854,-0.52000177,0.19960342,0.074478395,-0.2922041
Q6JP75,0.89567035,1.2276326,-3.7952309,0.23561774,0.19353674,-0.9129607,1.6436988,-0.8235298,-0.66344696,-0.39754233,-1.0549968,-0.3664498,-0.17328924,-0.6808871,0.014563067,-0.11487792,0.008115219,-0.7129517,0.17856133,-0.32755455,-0.41363496,0.029983655,-0.9853848,0.4368595,-0.05522152,-0.3794472,0.018934114,-0.56925595,-0.16050564,-0.059011087,-0.1211146,0.08825581,-0.21791932,0.55533224,-0.37194967,0.35239092,0.08131546,-0.18583661,-0.060794856,-0.26761478,0.016221318,-0.5218258,0.83931196,-0.17623514,-0.008230169,-0.27047935,0.022280207,-0.085113116,0.4428789,-0.6063577,-0.42137125,0.11382603,-0.5161258,-0.3435134,-0.017429572,0.12547287,-0.05448692,-0.07766998,0.1602436,0.15550579,0.119092494,-0.15222359,0.36446506,-0.36573976,0.21076125,0.0514541,-0.3824493,0.5935731,0.0375438,0.05656851,-0.14406624,-0.1251176,-0.15140317,-0.06359797,-0.20104378,-0.60031337,-0.24241285,0.47856686,-0.44749188,-0.17639619,-0.092765406,0.24278688,-0.14512451,-0.072205134,0.5092534,0.076471455,0.27048862,0.013300217,0.9207421,0.5767126,-0.1768977,-0.03753859,-0.385897,0.06646344,-0.19412306,-0.441642,-0.5123179,0.1890253,0.15026823,-0.33964032
4AG8_A,0.9009212,-0.2383407,-4.5863814,0.27543375,0.17694475,-1.7684984,1.9777116,-0.679374,-0.7451419,-0.3322813,-1.4644035,-0.15194225,-0.09428923,-0.7991647,0.010643295,-0.12530258,-0.006670248,-0.7632636,0.20778517,-0.20200369,-0.2967744,0.10154105,-0.8953738,0.5297807,0.06335719,-0.44396904,-0.007488636,-0.6726932,-0.11491156,-0.08939249,-0.0936548,0.14821716,-0.2957209,0.52630883,-0.3659006,0.3767459,0.080555744,-0.077143244,-0.06644524,-0.35360217,0.077497154,-0.5272771,0.776501,-0.10283141,0.07291348,-0.33649376,-0.060753882,0.01610749,0.42779297,-0.5367868,-0.44169667,0.13253288,-0.4950678,-0.38823795,-0.040876947,0.13423584,-0.08440926,-0.100739546,0.15588273,0.12303755,0.09010314,-0.24847029,0.4199487,-0.41945696,0.10281591,0.0511416,-0.41096672,0.5817456,-0.029538468,0.07885155,-0.36389634,-0.21172127,-0.12667808,-0.087945394,-0.22922648,-0.5867318,-0.33193722,0.5193236,-0.4625073,-0.18356927,-0.0683449,0.24588554,-0.12087803,-0.0464726,0.49568653,0.05531423,0.3029308,0.055002198,0.9607778,0.5653839,-0.1859953,-0.0806442,-0.43285948,0.02252294,-0.16410908,-0.34905836,-0.5040491,0.14832973,0.22277607,-0.35219103
2KDH_A,0.69877434,5.456311,-1.3831266,0.71536326,0.38090408,0.91692674,0.89268506,-0.880935,-0.41779146,-0.37004533,-0.088088065,-0.8371667,-0.23783383,-0.35941544,-0.0036534618,-0.088921994,0.13890396,-0.45463702,0.0461659,-0.5024166,-0.5062188,-0.17541358,-0.9336471,0.114962064,-0.2603393,-0.13254292,0.010270744,-0.1445046,-0.2666323,0.037997752,-0.08743002,-0.11468556,0.024740456,0.4475841,-0.28785652,0.18563725,0.089757845,-0.3420894,-0.0035459984,-0.047512043,-0.11973911,-0.31543687,0.7170776,-0.21318676,-0.15771416,-0.05933797,0.2549181,-0.22961068,0.3524911,-0.51691526,-0.20470306,-0.053209614,-0.394566,-0.15198258,0.01741081,0.026658423,0.05969912,0.006881517,0.13929708,0.14067997,0.14074627,0.021237057,0.13176934,-0.13066398,0.3758544,0.050780006,-0.18152983,0.5294386,0.1718333,0.054059055,0.33223778,0.09550291,-0.22134478,-0.0022016962,-0.01667765,-0.41198948,0.067099705,0.19025725,-0.21384232,-0.19311696,-0.07373476,0.1532417,-0.15013027,-0.13599467,0.3067987,0.104388155,0.18261555,-0.08972203,0.460264,0.47455576,-0.15179226,0.009986049,-0.093802,0.119769804,-0.14778832,-0.4622663,-0.3949271,0.18759093,-0.048984427,-0.21615161
Q7DHH4,0.93427557,-2.7464805,-4.853751,-0.89366275,0.08435832,-1.557662,1.5872842,-0.695755,-0.6745688,-0.4078243,-1.3403397,0.21617408,-0.061244667,-0.6857752,-0.032400507,-0.07473715,-0.046041753,-0.73393244,0.21380971,-0.181772,-0.22002955,0.076009326,-0.862041,0.6084132,0.12070712,-0.45957392,0.04668727,-0.704424,-0.041032903,-0.16025323,-0.027004708,0.23848164,-0.4421502,0.58169085,-0.33201095,0.45201278,-0.025344964,0.06552847,-0.12566634,-0.26486406,0.19129045,-0.6242231,0.79209477,-0.18924434,0.14532478,-0.3925415,-0.20800094,-0.012153223,0.5611951,-0.58657146,-0.539884,0.3275737,-0.5107734,-0.44273448,-0.016371898,0.2474991,-0.107596196,-0.04046804,0.19414076,0.16491723,-0.06354946,-0.28094107,0.49456432,-0.5214432,0.13654074,0.15326203,-0.3881444,0.5910308,-0.069256574,-0.041168377,-0.47850913,-0.24759193,-0.023187613,-0.07502788,-0.33785945,-0.6536959,-0.47808734,0.6681973,-0.4982127,-0.09237799,-0.159103,0.2922675,-0.04986221,0.12449333,0.6195942,-0.03043842,0.3430434,0.09080314,1.1335526,0.529593,-0.15554427,0.016202305,-0.5960007,-0.023001734,-0.15271093,-0.42136398,-0.5490317,0.17429681,0.28412324,-0.45478544
YP_016573,0.9235808,-1.4418502,-4.61794,-0.37330878,0.09556647,-1.5224272,1.7051969,-0.7223691,-0.68725294,-0.3867763,-1.3298655,0.015039334,-0.095177375,-0.71744233,-0.008678559,-0.073499046,-0.03051031,-0.7370955,0.20386858,-0.20991705,-0.27088377,0.07953519,-0.90977377,0.5717428,0.08273142,-0.4515537,0.027708583,-0.6779834,-0.08253475,-0.1236062,-0.0661611,0.16214553,-0.3459734,0.57042485,-0.35940698,0.41318747,0.02835122,-0.020337796,-0.09615494,-0.29013288,0.14221163,-0.57877016,0.792003,-0.15345776,0.107466005,-0.35875162,-0.13763966,-0.008756248,0.5174434,-0.5599568,-0.48673114,0.21897228,-0.5065648,-0.41380557,-0.017514678,0.19841236,-0.09924673,-0.08079672,0.18056548,0.145453,0.0050709043,-0.26658854,0.44444016,-0.46249393,0.13238809,0.098950796,-0.39692426,0.5852057,-0.051976018,0.0057087177,-0.40137768,-0.20463572,-0.089257576,-0.079128765,-0.27125227,-0.6242217,-0.41002998,0.6103818,-0.46645865,-0.13558842,-0.118600726,0.27141836,-0.10417542,0.03804823,0.55431527,0.009700661,0.32145166,0.08242301,1.053615,0.55663204,-0.16702437,-0.02515976,-0.5181631,0.0020456964,-0.17491442,-0.40820363,-0.5485902,0.165043,0.2494328,-0.40548402
Q862F3,0.71368676,5.4281917,-1.4798857,0.7551816,0.3775654,0.8379663,0.94806445,-0.8895178,-0.4372281,-0.37578574,-0.13717291,-0.8520177,-0.24373002,-0.3835982,-0.0019256973,-0.0998291,0.13185683,-0.4704808,0.050410625,-0.50612193,-0.51564485,-0.16020718,-0.94910747,0.12918909,-0.2603718,-0.14126237,0.0048696464,-0.1620278,-0.26920646,0.04267314,-0.098903835,-0.11898036,0.023281597,0.46006712,-0.29687932,0.18788786,0.096346006,-0.35027108,-0.0023141594,-0.061872832,-0.12479139,-0.32081413,0.7302943,-0.21043892,-0.16025797,-0.06529133,0.2631316,-0.22583203,0.35309154,-0.526433,-0.2109828,-0.0654315,-0.40375093,-0.15580647,0.011947396,0.018767383,0.054660328,0.0030753675,0.14190334,0.14051713,0.15936999,0.015156619,0.1340799,-0.13729689,0.3738381,0.044107236,-0.19099864,0.53284407,0.16416086,0.06539299,0.3263754,0.089898065,-0.22212265,-0.0005238268,-0.018035868,-0.42121625,0.068352245,0.19475234,-0.22783984,-0.19972621,-0.07140456,0.1545571,-0.15617086,-0.14719427,0.3136256,0.10900188,0.18314584,-0.09230749,0.48098874,0.48564127,-0.15994336,0.0023670595,-0.09448869,0.12380746,-0.15309086,-0.46024734,-0.4047702,0.18930694,-0.046008997,-0.21281731
AAA51534,0.7221138,5.4278674,-1.941138,1.1024214,0.40090257,0.06615932,1.3161446,-0.72952634,-0.51579344,-0.31771156,-0.5402151,-0.788617,-0.19291353,-0.46196234,-0.012850366,-0.1336151,0.10489835,-0.4535385,0.03972051,-0.40246993,-0.41893068,-0.07459169,-0.8944406,0.15909103,-0.19769691,-0.14746833,-0.031507526,-0.17618589,-0.23316303,0.054160595,-0.091839515,-0.11569654,0.002474739,0.4122323,-0.26242524,0.13015525,0.11658875,-0.27281442,0.010638045,-0.11834483,-0.087404855,-0.2544442,0.6300429,-0.121304184,-0.15229025,-0.11851921,0.2612256,-0.15012576,0.28888145,-0.4523718,-0.2044462,-0.08736066,-0.3516638,-0.14145413,-0.0667735,-0.017791934,0.0120328935,0.02248607,0.12611252,0.09437561,0.23758526,-0.042924356,0.15714699,-0.113017805,0.2905505,0.009875066,-0.2163239,0.42002323,0.0966412,0.12438132,0.21313345,0.02582354,-0.20527409,-0.028607039,-0.04484937,-0.34711275,0.056277968,0.15959229,-0.23585503,-0.19922358,-0.07240351,0.116166435,-0.123301096,-0.16347952,0.23254056,0.061517604,0.17151175,-0.07900127,0.42373115,0.43791834,-0.15468122,-0.0683283,-0.039199784,0.08597754,-0.15730515,-0.34211934,-0.35251853,0.2060856,-0.016985994,-0.17191406
1RA7_A,0.93662614,-1.5154914,-5.0579705,0.010109689,0.16103998,-2.0820415,2.0150588,-0.6424109,-0.77150685,-0.3405045,-1.6139323,0.02086096,-0.05994403,-0.84435135,0.011715342,-0.13814119,-0.055049095,-0.8050834,0.24246852,-0.15076783,-0.23037687,0.1514613,-0.8716562,0.6287994,0.14817022,-0.48635417,-0.005701954,-0.73890674,-0.062349234,-0.14182924,-0.057751257,0.20787959,-0.37524924,0.5533654,-0.36116806,0.4451273,0.046276778,0.0019012997,-0.09937554,-0.38275912,0.12826069,-0.55545175,0.7801077,-0.10108556,0.12562765,-0.38506907,-0.13235572,0.053702537,0.47507733,-0.5437344,-0.49146545,0.18663569,-0.49820372,-0.44732016,-0.06301395,0.15692934,-0.11229606,-0.067162424,0.17683206,0.1360053,0.053186364,-0.3131171,0.48668015,-0.49003315,0.07734843,0.078979775,-0.42003337,0.5995548,-0.06405008,0.0669585,-0.49897337,-0.27214295,-0.053246677,-0.0921623,-0.28826115,-0.6181143,-0.40940216,0.5794277,-0.5042739,-0.15849267,-0.09357722,0.27090195,-0.06871793,0.016298285,0.5594254,0.0153705245,0.31678954,0.065024786,1.0677526,0.54605365,-0.19657332,-0.06544076,-0.5071856,-0.006071066,-0.1361964,-0.3319513,-0.5317668,0.13568419,0.2742463,-0.39335462
2AVS_A,0.73183185,5.1162996,-1.6872041,0.73224014,0.36347073,0.64341605,1.0308031,-0.88133806,-0.45508564,-0.37937006,-0.2374889,-0.809837,-0.23752657,-0.4107906,0.0021240083,-0.09757025,0.11817693,-0.49055266,0.0627411,-0.48579717,-0.5021047,-0.14134735,-0.95312536,0.15842076,-0.23714511,-0.16397426,0.00957987,-0.19824275,-0.25520784,0.028938876,-0.09827175,-0.097702675,0.0040993635,0.46654227,-0.30359694,0.20595099,0.09426818,-0.33238646,-0.009554611,-0.08220833,-0.109682634,-0.33478662,0.73975194,-0.20532605,-0.14595601,-0.0839016,0.23753543,-0.21369053,0.35977894,-0.5310162,-0.23154788,-0.046911832,-0.41149873,-0.1768979,0.0058566662,0.03046103,0.043959573,-0.0032757374,0.14262435,0.14278643,0.15518278,-8.115845e-05,0.16014075,-0.15505975,0.3576224,0.04296848,-0.21030837,0.5357052,0.15395793,0.063588925,0.2827618,0.06897804,-0.21511309,-0.009689662,-0.038273,-0.43529996,0.039317477,0.22001015,-0.24783614,-0.19386142,-0.07502262,0.16250467,-0.15130956,-0.13872586,0.32795554,0.10420931,0.18875836,-0.08067618,0.51958644,0.49087185,-0.15862636,-0.002609172,-0.12030373,0.115751006,-0.15760866,-0.45690802,-0.4140046,0.19086345,-0.027933365,-0.22393018
1XM4_A,0.9248055,-0.25974825,-4.5130467,0.108727,0.14588876,-1.5431204,1.8622941,-0.73867303,-0.72458965,-0.36943033,-1.3684844,-0.15654343,-0.11695477,-0.7729358,0.010921074,-0.11144556,-0.022986867,-0.7644049,0.20891203,-0.23578398,-0.32161704,0.09439579,-0.9402178,0.5445782,0.05173631,-0.44594318,0.006752452,-0.6742625,-0.114881225,-0.09780776,-0.09716922,0.13604698,-0.29625508,0.561387,-0.37635332,0.39525467,0.07105898,-0.08991613,-0.07676339,-0.32930297,0.08425321,-0.5522769,0.81177735,-0.13328393,0.06859383,-0.3341697,-0.06586867,-0.0075867674,0.46834508,-0.5691567,-0.45998985,0.14659168,-0.5129852,-0.39661217,-0.031176452,0.14945501,-0.09238659,-0.09418237,0.16901858,0.139558,0.078620076,-0.24473892,0.4245157,-0.43325052,0.13283004,0.05886583,-0.41144717,0.5969478,-0.027996281,0.057587482,-0.3418727,-0.19515389,-0.118673965,-0.08093425,-0.23946166,-0.61309123,-0.34417945,0.5516947,-0.47202867,-0.17108493,-0.09009555,0.25987455,-0.129983,-0.032324243,0.52997714,0.048018496,0.30398515,0.05541345,1.008008,0.57668304,-0.18572956,-0.059924208,-0.4586489,0.026681738,-0.1790271,-0.3909228,-0.5364289,0.15953085,0.22307704,-0.36967483
P0AB71,0.90897256,0.8832738,-4.005662,0.38858098,0.19137359,-1.3594538,1.8604763,-0.7669211,-0.7442351,-0.352601,-1.2602415,-0.33773145,-0.1457855,-0.76907676,0.020809257,-0.14402336,0.0019292139,-0.76998764,0.20386559,-0.27860254,-0.40826353,0.06982497,-0.9666202,0.4525874,-0.040272277,-0.4236364,-0.004273132,-0.6563737,-0.16575433,-0.0509759,-0.14557861,0.14100233,-0.25500417,0.5315301,-0.37749836,0.3473526,0.10855628,-0.18578178,-0.05173178,-0.33727702,0.012591169,-0.547935,0.8426415,-0.14528795,-0.0013192218,-0.308789,0.0056125266,-0.03450329,0.39867878,-0.6148878,-0.43675998,0.13019285,-0.53611314,-0.3529647,-0.023645887,0.122489445,-0.06963343,-0.11558809,0.14006488,0.14003785,0.15395676,-0.16266152,0.39134964,-0.38545692,0.1508865,0.03154416,-0.43715122,0.5927849,0.030324288,0.09177564,-0.22371316,-0.17561758,-0.16790341,-0.08920449,-0.2186845,-0.61986434,-0.2710283,0.4883856,-0.49203548,-0.20246147,-0.06798267,0.2449885,-0.16012815,-0.10319521,0.5209249,0.09450389,0.28327322,0.02429685,0.94991755,0.59646213,-0.17766152,-0.07113751,-0.40096664,0.06848066,-0.20249246,-0.41338986,-0.4841533,0.1881405,0.17716724,-0.34548765
1DTQ_A,0.92399484,-2.225645,-5.013017,-0.42839268,0.1391054,-1.9389406,1.8539653,-0.62979704,-0.73317766,-0.35167867,-1.5325019,0.14279726,-0.04447218,-0.77465326,-0.011339666,-0.112763636,-0.04215557,-0.7673168,0.22527869,-0.14302722,-0.20627858,0.114906624,-0.8347226,0.6090538,0.14083463,-0.47307757,0.016701683,-0.7262428,-0.04909482,-0.14771093,-0.04004519,0.23852392,-0.41735768,0.5449797,-0.3386339,0.4370587,0.011526664,0.047203463,-0.10832706,-0.33287624,0.16079073,-0.5842332,0.76648295,-0.13119762,0.14020069,-0.39367518,-0.17566597,0.03540052,0.49593332,-0.5514732,-0.509804,0.26371783,-0.49711353,-0.44112974,-0.04163667,0.19967604,-0.1091908,-0.05886624,0.17836162,0.14277501,-0.005515522,-0.2958308,0.49199903,-0.5026747,0.0886147,0.11390231,-0.4072235,0.5844104,-0.0695839,0.020454003,-0.5073255,-0.27246234,-0.04198678,-0.087757386,-0.31463075,-0.6239129,-0.4449796,0.61228424,-0.49740726,-0.12804222,-0.11680875,0.27395353,-0.054121144,0.0669203,0.5770946,-0.004941945,0.33109012,0.081130154,1.0749453,0.53018737,-0.17045937,-0.034062676,-0.54444593,-0.017523881,-0.13815314,-0.35468933,-0.516811,0.15239975,0.2831136,-0.41955608
P0A6W3,0.8304637,0.12952174,-4.811113,0.9853886,0.36640355,-2.511617,2.401304,-0.43876252,-0.836468,-0.19275418,-1.8123696,-0.1743283,-0.007755013,-0.93552226,0.032332942,-0.2346061,0.025574453,-0.7893416,0.22274299,-0.08084183,-0.20196608,0.16182588,-0.7134311,0.5020811,0.12409672,-0.4307591,-0.064672075,-0.6712363,-0.09684522,-0.08063424,-0.06754543,0.21953848,-0.30671814,0.40140343,-0.32082555,0.34282932,0.10802742,-0.034944165,-0.04505622,-0.4680814,0.025281614,-0.4160594,0.6648555,0.007880675,0.07813635,-0.3416684,-0.017987048,0.11144894,0.26370016,-0.4439126,-0.38331503,0.07380799,-0.42769235,-0.3823538,-0.11121923,0.044946823,-0.06299245,-0.071435116,0.11648178,0.08347866,0.16519226,-0.26244116,0.43087637,-0.38988355,0.006337503,0.019586388,-0.4035738,0.54435927,-0.021155667,0.18622749,-0.44229892,-0.29994512,-0.10030961,-0.10488452,-0.21726064,-0.49183574,-0.26108968,0.36227164,-0.45730352,-0.2249502,0.0024151532,0.19311632,-0.03797464,-0.10095532,0.4077913,0.07833439,0.27512613,0.016478285,0.7854449,0.49786642,-0.20461679,-0.15512323,-0.32511103,0.013075024,-0.07454957,-0.16952457,-0.37010622,0.10095523,0.21881379,-0.28268632
P25101,0.8180312,0.18430421,-5.0079656,1.3126013,0.43678144,-2.885758,2.635592,-0.34587976,-0.89019084,-0.14461988,-2.0078442,-0.20282245,0.022355463,-1.009921,0.03819184,-0.28367576,0.039577536,-0.81697816,0.23340444,-0.040591337,-0.17707163,0.19079676,-0.64890665,0.49703097,0.14518373,-0.4331001,-0.08859063,-0.68769586,-0.0961769,-0.073967144,-0.06590921,0.24688025,-0.3104711,0.3603965,-0.31179196,0.3325133,0.12701201,-0.027492182,-0.033404887,-0.5245987,-0.0027987896,-0.38381645,0.63724416,0.04767719,0.07802958,-0.3443203,0.0076175965,0.14541067,0.2008763,-0.41980997,-0.3688332,0.045473386,-0.4102991,-0.3795895,-0.13716385,0.01073709,-0.057343204,-0.06752891,0.101047285,0.06854074,0.20286134,-0.26776153,0.44259378,-0.3859776,-0.031200089,0.0014462174,-0.411482,0.54246426,-0.020099312,0.23412369,-0.47308004,-0.33827072,-0.09432571,-0.11190282,-0.21560116,-0.46331587,-0.23162022,0.3093465,-0.4663909,-0.24677883,0.030319992,0.17696871,-0.016066343,-0.12987113,0.38053635,0.09690183,0.2713017,0.0007665801,0.73450226,0.48604017,-0.21847999,-0.19296937,-0.28890643,0.010257606,-0.04488292,-0.09972594,-0.32734647,0.080923654,0.22106996,-0.2559262
P68563,0.8559218,3.726341,-2.909193,0.68487155,0.2654604,-0.18848085,1.4702997,-0.91624135,-0.5830134,-0.42488584,-0.71304053,-0.67818034,-0.24334283,-0.5920605,0.021776957,-0.11533526,0.045813505,-0.63716966,0.13052075,-0.44456598,-0.5051244,-0.033796642,-1.0398315,0.32689947,-0.15625323,-0.28809795,0.015646579,-0.409195,-0.21851206,-0.011770394,-0.13723765,-0.035332005,-0.08184563,0.55574995,-0.3738434,0.29916567,0.107093245,-0.30213708,-0.034996964,-0.19743377,-0.06836877,-0.44143876,0.8459059,-0.19841605,-0.09155188,-0.16977923,0.16002409,-0.16540013,0.41878417,-0.6010327,-0.34034443,-0.0069496827,-0.4907621,-0.27444455,-0.012457946,0.06308154,-0.014057829,-0.051955584,0.16205674,0.16001408,0.17447232,-0.079161465,0.26728165,-0.26792273,0.3029352,0.024227954,-0.31631556,0.5912083,0.09343911,0.07587025,0.09647285,-0.018052068,-0.19480269,-0.031051164,-0.11436819,-0.5442134,-0.087217,0.3617634,-0.37249234,-0.19545174,-0.083281584,0.2136433,-0.17567928,-0.13715164,0.4365833,0.109878555,0.22624062,-0.040990543,0.76840305,0.57136685,-0.18814074,-0.03399647,-0.25473142,0.104773454,-0.19768813,-0.46931028,-0.5094521,0.19345859,0.057027612,-0.273754
Q02936,0.8881758,-1.1981839,-4.5579267,-0.15742049,0.12766823,-1.690626,1.7909205,-0.66020274,-0.69384915,-0.34160006,-1.3840867,-0.009231203,-0.07642573,-0.728816,-0.0045070658,-0.08013954,-0.010626864,-0.7209765,0.19431463,-0.17880048,-0.24733557,0.08025386,-0.8643799,0.5417037,0.084545895,-0.43963757,0.01133038,-0.6556234,-0.0872912,-0.1088562,-0.06420418,0.15730383,-0.32281655,0.52621603,-0.34695202,0.3820545,0.04163588,-0.020910142,-0.081601694,-0.30642635,0.12932323,-0.5359699,0.7443927,-0.11711178,0.103856556,-0.3523169,-0.123845436,0.015207084,0.4675962,-0.51325625,-0.4505763,0.18851069,-0.4797931,-0.39658922,-0.025992963,0.17529011,-0.08790391,-0.0889961,0.16426468,0.12465307,0.022396212,-0.26422915,0.42309168,-0.42957157,0.104675435,0.084307835,-0.38914436,0.55888164,-0.047611773,0.030920459,-0.40170097,-0.2068925,-0.10825291,-0.086062394,-0.24594076,-0.58447963,-0.3830233,0.56040424,-0.4403531,-0.15194826,-0.09090199,0.24884064,-0.098405726,0.012737996,0.5014758,0.018666483,0.31116527,0.080888815,0.975337,0.53838176,-0.16301483,-0.04696686,-0.47127143,0.0013425375,-0.16120529,-0.36361697,-0.5082302,0.15405469,0.23811504,-0.37724343
P0DOF8,0.73926127,5.3724885,-1.7079831,0.85271186,0.379837,0.6484426,1.0940706,-0.8884663,-0.49171185,-0.37448692,-0.26695788,-0.88947517,-0.25162387,-0.44544727,-0.00052546535,-0.13749641,0.120033674,-0.50278,0.05568223,-0.50778645,-0.5322771,-0.119917214,-0.9691797,0.15473966,-0.2633031,-0.1541389,-0.017110484,-0.19362006,-0.27767083,0.06353455,-0.12770556,-0.1346893,0.02228614,0.4783903,-0.31167,0.17630053,0.11541224,-0.36853746,0.006809789,-0.09844527,-0.14186436,-0.3208695,0.74302965,-0.19222239,-0.16984583,-0.07997984,0.2947908,-0.20750518,0.3396279,-0.53714705,-0.21497214,-0.107366264,-0.41610894,-0.15323211,-0.0066706277,-0.013024256,0.044070266,-0.0015226034,0.14533654,0.13278519,0.21603727,-0.0010297025,0.12884337,-0.1463755,0.36281186,0.02537498,-0.20818448,0.5283255,0.14149088,0.10393121,0.3119061,0.07286858,-0.22291292,0.0059010107,-0.013982226,-0.4285731,0.08140804,0.18874443,-0.2545985,-0.22131024,-0.060242876,0.14862172,-0.16792248,-0.18207124,0.3159671,0.11929374,0.18217582,-0.10378047,0.50777304,0.50479686,-0.18153404,-0.02308767,-0.0786143,0.13492675,-0.16024181,-0.43759146,-0.4142508,0.19228233,-0.04151107,-0.1936573
Q8VH25,0.8453768,-0.035842378,-4.668277,0.6728253,0.29774725,-2.189238,2.212806,-0.521601,-0.79369867,-0.23771572,-1.6642512,-0.15234254,-0.036495477,-0.87332267,0.027370557,-0.19076747,0.013584238,-0.76899755,0.21331179,-0.11924845,-0.22958894,0.13553812,-0.7730361,0.5053019,0.10086033,-0.43028778,-0.04313544,-0.6626744,-0.100541964,-0.08474225,-0.07253179,0.19490765,-0.3022656,0.4393739,-0.33111548,0.3506427,0.09410577,-0.04647903,-0.054702353,-0.4197349,0.047757108,-0.4488923,0.69472444,-0.029964965,0.075707436,-0.3398738,-0.039181996,0.0792637,0.31917265,-0.46894217,-0.398573,0.09935369,-0.4474136,-0.3841086,-0.08695459,0.075908005,-0.0697138,-0.07938757,0.12938789,0.09722526,0.13447438,-0.2539925,0.4218089,-0.39447993,0.039949115,0.033092305,-0.40157938,0.54726607,-0.020833459,0.14413247,-0.4160624,-0.2655223,-0.10951174,-0.09933088,-0.21996523,-0.52100766,-0.28838757,0.4122135,-0.4529737,-0.20696767,-0.022896517,0.20826146,-0.06271237,-0.07889054,0.43525967,0.06485953,0.2792945,0.030728973,0.8350618,0.513267,-0.19205517,-0.123291865,-0.35931778,0.017235257,-0.10454681,-0.2347954,-0.40834942,0.12060331,0.21746778,-0.30735365
3TKW_A,0.7513973,5.0055285,-1.739825,0.6694405,0.34346715,0.70966846,1.0112579,-0.9207176,-0.45489937,-0.40296856,-0.21351701,-0.82553476,-0.25472,-0.4095799,0.002026666,-0.09413606,0.10987429,-0.5002634,0.064392775,-0.5078634,-0.52447665,-0.14080961,-0.9879664,0.1691354,-0.24666077,-0.169118,0.016197173,-0.20858084,-0.25821903,0.028741267,-0.10831867,-0.10709534,0.004324655,0.49136016,-0.3160537,0.2150087,0.09518017,-0.34577054,-0.012385981,-0.07654709,-0.111128815,-0.35411373,0.7675126,-0.22167891,-0.15101108,-0.082892016,0.24137959,-0.22847323,0.38163355,-0.5548417,-0.24484488,-0.04561277,-0.42818582,-0.18069811,0.01051211,0.036417536,0.03823215,-0.0059980312,0.15017343,0.15119888,0.15674494,0.002636556,0.16400462,-0.16500716,0.37356225,0.042086806,-0.21755731,0.5488168,0.15184462,0.057173956,0.29552335,0.077186964,-0.21617883,-0.005092905,-0.043250553,-0.45514923,0.034713764,0.24029046,-0.25982112,-0.1912464,-0.084556416,0.17122312,-0.164649,-0.13911955,0.34852973,0.10650649,0.19189717,-0.081244536,0.5566085,0.5073961,-0.16255873,0.0022799633,-0.13650663,0.12085301,-0.17149313,-0.48057795,-0.43773004,0.19783798,-0.027261617,-0.23165375
ACF54603,0.89188576,2.498434,-3.1941102,0.23282489,0.18567295,-0.24004722,1.3903968,-0.94048077,-0.58378005,-0.45689425,-0.73818123,-0.534895,-0.23807807,-0.5813485,0.012809389,-0.08454876,0.020628197,-0.6576458,0.14419128,-0.4283784,-0.49005112,-0.024702843,-1.0622816,0.38023946,-0.13063017,-0.3269106,0.038044266,-0.47148907,-0.19207302,-0.036622647,-0.13506271,0.0013399787,-0.13816535,0.590363,-0.38368356,0.33361652,0.08146223,-0.2612547,-0.055133,-0.19067892,-0.018939449,-0.5024759,0.8736969,-0.22438824,-0.058503892,-0.2116701,0.08595399,-0.16370423,0.47578603,-0.6308515,-0.39313668,0.0664995,-0.518932,-0.30857694,0.0016662641,0.116901964,-0.03450799,-0.06460961,0.1723801,0.17205712,0.12755385,-0.10185567,0.30762222,-0.3164873,0.29486433,0.04794059,-0.3436045,0.599015,0.0689838,0.034940578,0.021698123,-0.039088175,-0.17843224,-0.038050752,-0.16024843,-0.59563977,-0.17225926,0.4523689,-0.40895897,-0.16981438,-0.11050324,0.23798132,-0.1746954,-0.0885624,0.4940201,0.08638835,0.24845089,-0.008843473,0.88184285,0.5864499,-0.1757293,-0.00934781,-0.34264436,0.0906256,-0.21863501,-0.5081826,-0.54494196,0.20757778,0.0948986,-0.32119432
Q72547,0.8922935,-2.2886004,-5.031587,-0.30813512,0.14018063,-2.1222749,1.9171538,-0.5658806,-0.73104733,-0.31310433,-1.60016,0.16526793,-0.024238313,-0.7791359,-0.00737865,-0.09634113,-0.028222209,-0.7480314,0.21764131,-0.09847671,-0.16382316,0.118443824,-0.79160845,0.6007754,0.16214857,-0.47257608,0.007112364,-0.7098116,-0.04299702,-0.14250225,-0.03249746,0.22517295,-0.3939844,0.5092804,-0.33161914,0.41479617,0.017769743,0.06492861,-0.09777573,-0.34619766,0.17112799,-0.5442067,0.7109597,-0.08899579,0.15424746,-0.39685076,-0.18827203,0.06568048,0.46724725,-0.48930532,-0.47775167,0.2367387,-0.4676919,-0.43469217,-0.046944022,0.18917117,-0.10168545,-0.07421817,0.16743289,0.1197107,-0.007222171,-0.31414992,0.4753064,-0.4752504,0.05335787,0.1040104,-0.3992365,0.55426764,-0.07905062,0.033125054,-0.53574216,-0.27361104,-0.060994472,-0.09681299,-0.28966388,-0.5862579,-0.44340634,0.5869079,-0.46381035,-0.1383342,-0.09144888,0.25534976,-0.048754126,0.05663006,0.52167463,-0.006524173,0.32517746,0.095594876,1.0137509,0.5136785,-0.16428842,-0.051879555,-0.5158007,-0.026564734,-0.12857065,-0.3117964,-0.49334612,0.13792925,0.2825291,-0.3988402
Q9Y0I0,0.83650154,0.67531425,-4.56592,0.9822032,0.35060075,-2.215211,2.2925746,-0.5081776,-0.8082043,-0.22320372,-1.6729842,-0.25249708,-0.042200714,-0.89656943,0.032858282,-0.21987176,0.027402375,-0.77467674,0.21291213,-0.13168745,-0.24922603,0.13799523,-0.76493204,0.47922304,0.083712615,-0.41514102,-0.055816665,-0.6414364,-0.11711582,-0.0691239,-0.0818033,0.18358639,-0.2730031,0.42369246,-0.3316217,0.33652052,0.11320089,-0.07819229,-0.041770685,-0.4367055,0.009796273,-0.4216166,0.6940563,-0.018239334,0.053048264,-0.3189063,0.0095500555,0.07579237,0.28266567,-0.46774876,-0.3773845,0.058319174,-0.43957093,-0.36746734,-0.09699783,0.04546357,-0.057187468,-0.07387055,0.121713124,0.092996985,0.17273293,-0.2376414,0.4085325,-0.37285823,0.044751164,0.016194554,-0.39679706,0.5532485,-0.004321919,0.1750248,-0.36854035,-0.26150042,-0.11775883,-0.096840896,-0.20082363,-0.50150293,-0.23667982,0.3625093,-0.44856206,-0.22528493,-0.0064793904,0.19694403,-0.06258261,-0.1125407,0.41208783,0.08629722,0.26907453,0.008733035,0.786173,0.51306325,-0.20373547,-0.14210501,-0.3145527,0.02764038,-0.09457444,-0.21142583,-0.391025,0.11366268,0.19705823,-0.28072956
3G4I_A,0.94030845,-0.20022012,-4.5069585,0.04394596,0.12672754,-1.4345567,1.8195475,-0.77743435,-0.7177513,-0.39173973,-1.3275032,-0.17073347,-0.13257806,-0.7641744,0.010739886,-0.104112454,-0.030292265,-0.76866865,0.2101644,-0.25770628,-0.34126294,0.09086655,-0.97209895,0.55322576,0.042929567,-0.4492014,0.0133350985,-0.6782363,-0.11869035,-0.0995859,-0.103178844,0.12547801,-0.2934775,0.58367634,-0.38634452,0.40476003,0.06994756,-0.101867184,-0.080078244,-0.3191224,0.08552439,-0.56810516,0.83568114,-0.14933304,0.06513665,-0.33179206,-0.06433269,-0.021703439,0.49073085,-0.588661,-0.47007495,0.14860605,-0.5255248,-0.40012166,-0.024366828,0.15664922,-0.09616434,-0.09572319,0.17601208,0.14747645,0.075669564,-0.24277979,0.42556316,-0.4401328,0.14916164,0.060341667,-0.41437563,0.60840654,-0.027544321,0.04775453,-0.32686964,-0.1843004,-0.119582,-0.077323824,-0.24157533,-0.62940425,-0.34888595,0.57090634,-0.47825354,-0.16752212,-0.099548295,0.26861802,-0.14129381,-0.02968601,0.5468776,0.04802061,0.30652052,0.05613645,1.0370008,0.58899975,-0.1877511,-0.051793367,-0.47198153,0.03028757,-0.19044256,-0.4155583,-0.55876744,0.16516909,0.22275575,-0.37788266
1J36_A,0.897561,-3.0638525,-5.212332,-0.56011236,0.14009689,-2.1699607,1.8912355,-0.55576843,-0.7309325,-0.33090833,-1.6377875,0.2630906,-0.011553584,-0.7733303,-0.019234067,-0.09961305,-0.02635138,-0.7510616,0.22830003,-0.08465834,-0.14244282,0.11402437,-0.76971036,0.6210317,0.18264209,-0.4785669,0.021542799,-0.7229691,-0.023650924,-0.16019607,-0.0148679195,0.26985988,-0.44305387,0.5193515,-0.3233257,0.43660146,-0.007926525,0.113101,-0.11015615,-0.34078664,0.1964748,-0.5683291,0.7135783,-0.10364953,0.17728184,-0.41198385,-0.22112428,0.057315838,0.48958358,-0.5016111,-0.5098312,0.2904105,-0.4732304,-0.45177004,-0.04821589,0.21350662,-0.09601,-0.057779673,0.17448264,0.13131152,-0.04128813,-0.32202235,0.5045434,-0.5075057,0.056629665,0.1345381,-0.39536306,0.5628304,-0.08655165,0.0062742746,-0.57344437,-0.29955402,-0.029688941,-0.09353315,-0.32066518,-0.6009725,-0.4789475,0.61885613,-0.48239058,-0.117169246,-0.10735221,0.2685585,-0.02026034,0.10067338,0.5501755,-0.02166662,0.34012544,0.10043448,1.0555444,0.5111251,-0.1640084,-0.03390149,-0.55885714,-0.037733283,-0.11680094,-0.31640562,-0.5005925,0.14087701,0.30026087,-0.4208143
P28593,0.90628725,-1.6483942,-4.6924367,-0.28720388,0.12994134,-1.7556998,1.770123,-0.65081125,-0.70146716,-0.34596497,-1.4118412,0.05651377,-0.061804656,-0.74305767,-0.0007205256,-0.096525006,-0.041313443,-0.73912346,0.21193653,-0.16155002,-0.22005288,0.10693337,-0.8592259,0.58522254,0.11978273,-0.45279136,0.010059153,-0.67708576,-0.059917193,-0.13669156,-0.0445117,0.18920879,-0.36008987,0.5391835,-0.3386021,0.41939366,0.021299236,0.007757691,-0.101600565,-0.31648213,0.14414582,-0.54186314,0.7490994,-0.12266075,0.119524814,-0.37220317,-0.15062203,0.029625386,0.4880355,-0.52497834,-0.4724767,0.21536422,-0.47935832,-0.42498764,-0.041671906,0.18091102,-0.101048626,-0.056569926,0.17506954,0.13657042,0.013231543,-0.28872433,0.45401245,-0.46146065,0.10219658,0.099430755,-0.38771912,0.5683871,-0.055808686,0.030003956,-0.45275468,-0.23466541,-0.060606126,-0.08620809,-0.2792178,-0.60108393,-0.40725294,0.57800204,-0.46565732,-0.1377052,-0.108991325,0.25913638,-0.062205225,0.04351271,0.5407728,-0.0036863915,0.3092984,0.07431233,1.0288221,0.5176609,-0.1685678,-0.032299135,-0.49858233,-0.009123459,-0.14161447,-0.35770476,-0.51772755,0.15120196,0.25559416,-0.39666912
Q5HPI5,0.9098656,-3.316132,-4.6825404,-1.2763034,0.066477686,-1.3377156,1.368918,-0.7017957,-0.6151866,-0.42812806,-1.207305,0.29535586,-0.06453082,-0.5992284,-0.041919906,-0.038668852,-0.030095078,-0.682076,0.20331915,-0.18228698,-0.1999231,0.03337507,-0.84214306,0.58563685,0.111366965,-0.43641752,0.07491027,-0.6515832,-0.028584082,-0.1676901,-0.0072843716,0.24443124,-0.44371793,0.5790592,-0.31416842,0.44845766,-0.059521146,0.09740091,-0.13331947,-0.21082073,0.22183987,-0.6229685,0.76968974,-0.20907591,0.15513052,-0.38587222,-0.23912862,-0.041721527,0.586994,-0.577564,-0.5412686,0.3743566,-0.50052834,-0.4380694,-0.0007411762,0.2773138,-0.084917516,-0.022930594,0.2007978,0.17566743,-0.11198439,-0.26708263,0.48620704,-0.5130836,0.16396077,0.19054338,-0.35651502,0.57443374,-0.061157484,-0.08882665,-0.45164692,-0.2295803,-0.012328241,-0.06782862,-0.3401641,-0.6453559,-0.4925405,0.68149745,-0.4739801,-0.065035604,-0.17517276,0.29247832,-0.023448352,0.17188364,0.6178694,-0.051866535,0.34232384,0.099470414,1.1195624,0.5112727,-0.1359492,0.055795796,-0.6117906,-0.027637856,-0.14845069,-0.44356558,-0.5458689,0.18794656,0.27504146,-0.46769056
Q6UCJ9,0.9110879,0.04528825,-4.042919,-0.15904498,0.162643,-1.016659,1.5871762,-0.7983083,-0.6626702,-0.4034936,-1.0977082,-0.19798508,-0.1435875,-0.6743492,0.0019336271,-0.10529826,-0.007876336,-0.7180771,0.18566619,-0.29466572,-0.36627916,0.03859812,-0.9540114,0.47877306,-0.014230208,-0.39905515,0.032893013,-0.6109955,-0.12786274,-0.087611206,-0.09777264,0.13654388,-0.2880642,0.56418043,-0.35888833,0.37880203,0.048884127,-0.11832168,-0.081473164,-0.25909093,0.06387793,-0.5623349,0.8354762,-0.1897534,0.030456921,-0.3031051,-0.04329072,-0.069760665,0.47751027,-0.6160026,-0.461171,0.18889152,-0.52199626,-0.370301,-0.0133503685,0.16430008,-0.07406099,-0.065316096,0.17010143,0.16408034,0.06539768,-0.17765984,0.40353596,-0.41538528,0.19686158,0.08123459,-0.3870281,0.594293,0.009381767,0.024636034,-0.23026079,-0.15844852,-0.11365756,-0.06437609,-0.24785663,-0.62101454,-0.31077507,0.5367912,-0.46638507,-0.14779623,-0.11792175,0.2573305,-0.121719986,-0.015231987,0.55407673,0.047147814,0.29053232,0.0344323,0.98608094,0.5650633,-0.16662674,-0.01794126,-0.45156696,0.044587314,-0.18690309,-0.44498622,-0.5190362,0.19020092,0.18819158,-0.3771697
CDO16711,0.7761437,4.2559643,-2.023925,0.47717214,0.30278212,0.48723248,1.0686272,-0.9077503,-0.47561926,-0.4109485,-0.3242278,-0.7294098,-0.24424393,-0.42945957,0.0005236859,-0.0856685,0.08949516,-0.5195562,0.07458588,-0.47663447,-0.50081235,-0.11468503,-0.99014807,0.21124583,-0.2185765,-0.1994886,0.02463316,-0.25699475,-0.23283759,0.0145908855,-0.110195175,-0.07878736,-0.030914051,0.5032479,-0.32227403,0.23192345,0.08229114,-0.3131742,-0.023268294,-0.0927796,-0.0818052,-0.37702277,0.77299416,-0.21836971,-0.12847067,-0.120416686,0.19344895,-0.2112044,0.3985619,-0.5603782,-0.27643904,-0.010021075,-0.43791535,-0.20656851,0.0038153452,0.06012408,0.02230636,-0.013720489,0.15166831,0.15195674,0.14738363,-0.020984976,0.19372496,-0.19142313,0.3503016,0.047552973,-0.24300267,0.5383398,0.12816492,0.048038095,0.22745234,0.047374226,-0.20345503,-0.014440179,-0.07603419,-0.47849122,-0.018613707,0.28613755,-0.28975615,-0.17758901,-0.095032826,0.17801796,-0.15385112,-0.11818016,0.37087655,0.09060471,0.20058261,-0.060204614,0.61921024,0.5102411,-0.1556052,0.0036995113,-0.18058293,0.10916392,-0.18221208,-0.47928175,-0.44909686,0.20751528,0.00063905783,-0.24983467
Q92570,0.80374604,-1.7522529,-4.088338,-0.4093213,0.17142837,-1.5406259,1.5629988,-0.54701656,-0.6194071,-0.28933603,-1.2273715,0.09678202,-0.030810565,-0.6178001,-0.019564508,-0.060553845,0.025307085,-0.6231041,0.1559866,-0.12833367,-0.17109688,0.03257561,-0.7329417,0.45997694,0.07624864,-0.38048023,0.01738125,-0.5567592,-0.063997485,-0.10533968,-0.020918496,0.18206233,-0.32380792,0.44264045,-0.28086135,0.3322559,3.7092e-05,0.031649634,-0.082189,-0.24720371,0.14331362,-0.47244424,0.6388094,-0.10707302,0.10526013,-0.34231386,-0.15350412,0.01810971,0.4182577,-0.4429089,-0.40504345,0.23661086,-0.41842943,-0.3642093,-0.025221633,0.18569636,-0.05739409,-0.049411897,0.14484537,0.11256707,-0.023050146,-0.23195016,0.38849926,-0.38118672,0.09953341,0.11799237,-0.33154804,0.4892937,-0.03172211,0.008862358,-0.38196588,-0.20064832,-0.093034394,-0.08475479,-0.24278979,-0.51824504,-0.3631479,0.49301833,-0.38248515,-0.1263378,-0.09097687,0.21001434,-0.032271396,0.054039534,0.44360298,-0.010744208,0.29007295,0.080409884,0.8364906,0.45500618,-0.12237304,-0.017251033,-0.42556572,-0.012955514,-0.12217024,-0.3230522,-0.41345504,0.16077264,0.21313113,-0.36146632
P90584,0.91971016,-0.11709914,-4.721794,0.38896835,0.17759188,-1.8570238,2.0612864,-0.6890246,-0.7698338,-0.33610034,-1.5305957,-0.1758235,-0.099504,-0.8390108,0.01804076,-0.13725029,-0.017844161,-0.7912836,0.22023973,-0.20392466,-0.30531958,0.12221718,-0.9154525,0.5552722,0.075122096,-0.45996475,-0.013167216,-0.6984771,-0.11620105,-0.09310588,-0.10094489,0.14503945,-0.2951178,0.5407699,-0.38011444,0.39109743,0.091743164,-0.0857599,-0.06676083,-0.37824237,0.07240623,-0.5332122,0.79439753,-0.09568833,0.07529612,-0.34098515,-0.053123366,0.024895849,0.43159598,-0.5452357,-0.44934657,0.113689445,-0.5043387,-0.39981493,-0.048125397,0.12462204,-0.092569485,-0.106103405,0.15978187,0.124039195,0.10673138,-0.2629587,0.431256,-0.431366,0.0965536,0.040137373,-0.42415416,0.59696686,-0.03512981,0.09271805,-0.38017526,-0.2204878,-0.124892354,-0.08950452,-0.23006962,-0.59672457,-0.33418745,0.526354,-0.4766816,-0.19208495,-0.064361595,0.25234056,-0.12887846,-0.059103172,0.50524205,0.061738696,0.30496827,0.052862134,0.9852792,0.5796241,-0.19873819,-0.0930107,-0.43773893,0.024152288,-0.16608636,-0.34471238,-0.5211784,0.14184313,0.23045422,-0.35152063
P96878,0.9173574,-2.45891,-4.7994003,-0.320837,0.18842052,-2.0494153,1.944874,-0.5272926,-0.745604,-0.33793998,-1.6078398,0.14011498,-0.034937978,-0.823528,0.011883162,-0.14418325,-0.030056203,-0.7855221,0.23459616,-0.12141513,-0.19041911,0.12159955,-0.7263209,0.6231585,0.1579797,-0.4721722,0.02417939,-0.743142,-0.042026807,-0.1573517,-0.0295865,0.26289308,-0.4249446,0.5342793,-0.34099567,0.43799227,0.011557036,0.0751556,-0.110862665,-0.35927066,0.16343318,-0.5712661,0.7581742,-0.10944912,0.15438135,-0.3960061,-0.17454852,0.05171484,0.4691576,-0.545856,-0.51453775,0.26784715,-0.49500403,-0.46242923,-0.066984706,0.17202348,-0.10373597,-0.052666504,0.17729981,0.14931017,0.0006427703,-0.2926141,0.5129356,-0.5157302,0.07819345,0.107060485,-0.41290703,0.5763592,-0.060717463,0.02465549,-0.5250626,-0.3018897,-0.027563728,-0.08129105,-0.31603584,-0.60342294,-0.4644252,0.5919429,-0.49965933,-0.12805045,-0.100264244,0.26715845,-0.027424503,0.058755998,0.5826408,-0.0008728124,0.31901658,0.07607821,0.98068804,0.5316875,-0.17754617,-0.050514296,-0.5436223,-0.012713251,-0.11870608,-0.32139462,-0.4629951,0.14286166,0.29453474,-0.40274373
O00764,0.9726641,0.9640864,-4.2534285,0.14733256,0.1663299,-0.97299224,1.7495389,-0.900911,-0.7143644,-0.44963524,-1.1677068,-0.357438,-0.1959312,-0.75627035,0.021765301,-0.1387847,-0.030004246,-0.7894828,0.21096393,-0.35877392,-0.45130903,0.06867066,-1.0611595,0.51416403,-0.033766393,-0.42447308,0.029859329,-0.6584727,-0.15572573,-0.08146962,-0.13916379,0.107875235,-0.2622331,0.6257707,-0.4099878,0.4108191,0.08636076,-0.19076267,-0.07791667,-0.3018831,0.019976847,-0.59357905,0.92877716,-0.20424777,0.0022952845,-0.2889678,0.017193746,-0.09243981,0.49618363,-0.6837457,-0.4854297,0.13094316,-0.5699712,-0.38552794,-0.022276953,0.13564703,-0.086136825,-0.081535175,0.18319008,0.18225521,0.12933633,-0.17492276,0.41886774,-0.4354977,0.22380395,0.047414776,-0.42354485,0.65145403,0.018032564,0.05632966,-0.18787369,-0.15243474,-0.12587574,-0.057533797,-0.24344264,-0.66592383,-0.28226984,0.5509208,-0.5123975,-0.1712026,-0.11546622,0.27929857,-0.16720532,-0.06740622,0.5953269,0.083600625,0.28986323,0.0122267455,1.061455,0.6274937,-0.2031922,-0.04154818,-0.45535251,0.07071668,-0.21280718,-0.47634885,-0.57981896,0.1904582,0.18327826,-0.3723064
1BR6_A,0.8922442,1.9647671,-3.647175,0.45028323,0.20244786,-0.8071222,1.6559924,-0.8478523,-0.6558081,-0.40394375,-1.0128895,-0.46449465,-0.196558,-0.68046176,0.021538317,-0.114205755,0.014197311,-0.70597696,0.17187685,-0.35466182,-0.4412173,0.02445277,-1.0114466,0.42121637,-0.07653885,-0.3669181,0.012813281,-0.539715,-0.17867574,-0.04501829,-0.13300346,0.046740875,-0.17187864,0.5618111,-0.38375995,0.34199762,0.097485796,-0.22478491,-0.050841488,-0.26523277,-0.007506827,-0.4988136,0.8450518,-0.17154068,-0.027779516,-0.24757093,0.06070844,-0.09795124,0.4361996,-0.59894323,-0.39869422,0.06332031,-0.51214904,-0.3304788,-0.017787028,0.10348391,-0.045303527,-0.08206485,0.16052866,0.15292579,0.1444109,-0.1437737,0.33830538,-0.3392147,0.2267086,0.035115227,-0.37320757,0.59633005,0.04824292,0.07010943,-0.09107746,-0.09842938,-0.17141178,-0.05854522,-0.17028719,-0.5884056,-0.2031652,0.45129842,-0.43077818,-0.1901067,-0.081919394,0.23674697,-0.16202518,-0.10217846,0.48404405,0.09075634,0.25965568,0.0027058937,0.88975984,0.5853616,-0.18591636,-0.046285026,-0.3489091,0.07783195,-0.19984762,-0.44467324,-0.52266747,0.18664819,0.12829088,-0.31761938
Q47245,0.89090323,-3.5486245,-4.7258425,-1.210764,0.09327398,-1.4995948,1.4307052,-0.6415542,-0.62623596,-0.39400008,-1.2700722,0.3247455,-0.038879648,-0.6131303,-0.042473946,-0.050675917,-0.023560807,-0.67692506,0.20008568,-0.14804368,-0.16763772,0.042344287,-0.79269016,0.57659125,0.12674263,-0.43341425,0.064057045,-0.6492856,-0.01996763,-0.16684821,0.0017862773,0.26238784,-0.45205328,0.5467522,-0.29879916,0.43674198,-0.06006177,0.11612869,-0.13027985,-0.22569911,0.21999253,-0.6011702,0.7348547,-0.18670483,0.16110732,-0.39187378,-0.24509734,-0.017823651,0.55502546,-0.54913443,-0.5280727,0.37463975,-0.48211396,-0.43482587,-0.010451935,0.26860985,-0.08366465,-0.018951554,0.19088306,0.16429766,-0.10901485,-0.27164733,0.48603895,-0.5061609,0.13850342,0.18787575,-0.35323188,0.5575254,-0.065253295,-0.07292346,-0.48034096,-0.2474387,-0.008220858,-0.07309337,-0.34173727,-0.62416446,-0.48750737,0.6550996,-0.46735063,-0.06863637,-0.16346867,0.279392,-0.0059635025,0.16917734,0.596671,-0.0531798,0.33891913,0.09921716,1.0796398,0.4901752,-0.13198492,0.044288754,-0.5942644,-0.034481734,-0.13174795,-0.4067954,-0.51213,0.17995873,0.2775723,-0.45759863
Q27793,0.8874875,-2.010902,-4.946233,-0.18499343,0.17569818,-2.1105282,1.9491706,-0.5670627,-0.7424633,-0.3051212,-1.5908875,0.11684279,-0.025634082,-0.7886463,-0.0075202817,-0.12027284,-0.019070731,-0.75187445,0.21583498,-0.1114315,-0.18371217,0.11616686,-0.78607434,0.57471895,0.14269139,-0.46101007,0.0012760233,-0.703734,-0.054759443,-0.13158937,-0.04039547,0.23577535,-0.39308754,0.49804503,-0.32633296,0.40332112,0.027550288,0.045078408,-0.09226109,-0.35248291,0.1453605,-0.54053795,0.7174868,-0.0921854,0.1350493,-0.3855269,-0.16020472,0.058669403,0.4425667,-0.50318485,-0.47315016,0.23074932,-0.47041973,-0.42174262,-0.051022936,0.17619805,-0.09675436,-0.06912507,0.15993531,0.12113012,0.015058739,-0.29242367,0.47026598,-0.46843562,0.058768317,0.09764975,-0.40065396,0.5581037,-0.06589443,0.04827694,-0.5073884,-0.2751114,-0.06294361,-0.095122896,-0.2892244,-0.5825472,-0.4147094,0.5603344,-0.47113928,-0.14548461,-0.08800964,0.2500219,-0.04971459,0.03950476,0.52082866,0.0066949967,0.32092583,0.08014862,0.99402213,0.5146292,-0.16762167,-0.058796566,-0.49601004,-0.017530154,-0.12546329,-0.3074838,-0.4733552,0.13995306,0.27073768,-0.3893868
Q59750,0.8515906,-3.601355,-4.9422274,-0.91584814,0.20685498,-2.0148587,1.6734694,-0.4787281,-0.68421537,-0.3014864,-1.4990947,0.37862214,0.030129224,-0.6883186,-0.035579305,-0.11813701,-0.015296796,-0.69206196,0.21115375,-0.057540167,-0.08930588,0.083706476,-0.6628379,0.5652173,0.1753918,-0.43140942,0.029555185,-0.6613964,0.004440674,-0.17106897,0.025853487,0.33579144,-0.4900658,0.46495128,-0.25896963,0.4242728,-0.0577004,0.16243058,-0.12582006,-0.291028,0.20025802,-0.54853797,0.66208994,-0.12616546,0.17220323,-0.40954816,-0.24457857,0.049741473,0.45978177,-0.4994989,-0.5044728,0.37372488,-0.44186217,-0.43712646,-0.051275875,0.23003116,-0.07923488,0.008009043,0.1672532,0.14304344,-0.07777574,-0.2838828,0.5060678,-0.50364995,0.07221769,0.18053113,-0.3519505,0.53137404,-0.066399574,-0.013180847,-0.5618466,-0.3179561,0.025201282,-0.086986445,-0.3588337,-0.57688886,-0.46329898,0.571737,-0.47552508,-0.083065756,-0.13120443,0.25122118,0.058256306,0.15680733,0.5637269,-0.05091204,0.32715327,0.078941226,0.99105096,0.43555638,-0.13473469,0.00948861,-0.5474176,-0.047261767,-0.07322577,-0.2981359,-0.41846576,0.15607788,0.28658095,-0.43206513
2FL5_L,0.6751035,5.919337,-1.9405677,1.4051104,0.44574594,-0.4081749,1.4573954,-0.5148225,-0.53443426,-0.23218049,-0.7561638,-0.7350053,-0.12538208,-0.43462968,-0.048209056,-0.14426468,0.09954557,-0.33508182,-0.019188989,-0.28996158,-0.28278077,-0.02643112,-0.7951288,0.11441638,-0.15832336,-0.08828655,-0.07253732,-0.078787334,-0.19822626,0.08843669,-0.05690383,-0.15463743,0.011468943,0.31508937,-0.17572966,0.0008814908,0.12757653,-0.16958411,0.037916858,-0.105952695,-0.03462262,-0.12586188,0.43948272,-0.020255925,-0.16556132,-0.15128142,0.28242713,-0.084474996,0.2021289,-0.32009763,-0.14979555,-0.11420271,-0.24234928,-0.06655934,-0.1550676,-0.061410055,-0.0257157,0.07610931,0.10033426,0.023987135,0.31293592,-0.08278848,0.1332115,-0.024376307,0.21628663,-0.017615262,-0.1941728,0.22845261,0.02735646,0.17206728,0.15625134,-0.0024944253,-0.19271632,-0.056447405,-0.050100647,-0.19681866,0.08283194,0.06898497,-0.17615815,-0.1818002,-0.09016317,0.0431447,-0.073783256,-0.16467087,0.07436367,-0.024675826,0.14311881,-0.068899915,0.23843285,0.33011964,-0.1214784,-0.134411,0.08424298,0.03211743,-0.16039994,-0.20053421,-0.24731305,0.2396895,-0.01695289,-0.107058495
3EYG_A,0.9433796,0.7195781,-4.090043,0.07376322,0.11795403,-0.95742613,1.6586435,-0.8766387,-0.6744848,-0.43604884,-1.1076115,-0.31348237,-0.18762107,-0.7055372,0.014269482,-0.08870218,-0.020006808,-0.7449015,0.19310172,-0.3375077,-0.41934228,0.050620805,-1.0430851,0.50550866,-0.02768148,-0.41842577,0.028331202,-0.6250861,-0.15228887,-0.07735226,-0.12767614,0.07258026,-0.23533054,0.610678,-0.4019362,0.38899818,0.07963341,-0.17445445,-0.07256982,-0.27385327,0.05079428,-0.5689402,0.8794749,-0.1884811,0.01946953,-0.29168788,-0.012071046,-0.08151442,0.5061306,-0.62638617,-0.4573384,0.121086,-0.54288507,-0.37408507,-0.0064790016,0.15076813,-0.0802364,-0.09768328,0.17975771,0.16319634,0.095521934,-0.19273305,0.3883625,-0.40689975,0.21040022,0.05270582,-0.40322015,0.6192366,0.006290269,0.034996625,-0.1976115,-0.12595873,-0.14905708,-0.06348731,-0.21407448,-0.6395216,-0.29925063,0.55711657,-0.46593547,-0.16959023,-0.10860268,0.2692082,-0.17380151,-0.055065397,0.5479722,0.0664473,0.29154554,0.038594376,1.0225196,0.6112379,-0.186523,-0.034234345,-0.4455822,0.057438668,-0.21829991,-0.4746481,-0.58010983,0.18630145,0.1817693,-0.36710522
1IKV_A,0.9083589,-2.180113,-4.8708076,-0.44723514,0.1280359,-1.8445257,1.7929498,-0.6333573,-0.7126046,-0.35256645,-1.4721936,0.14248604,-0.046697967,-0.74404955,-0.018793875,-0.09480304,-0.027501274,-0.7430238,0.21421972,-0.14850777,-0.20735614,0.09744025,-0.82918435,0.5869956,0.12866749,-0.4603564,0.020714255,-0.70041144,-0.053791143,-0.14015381,-0.03947281,0.22438696,-0.40403333,0.53769624,-0.33281913,0.42140394,0.009473821,0.045864884,-0.103706084,-0.31423447,0.16326953,-0.5754194,0.7513774,-0.13309512,0.13735048,-0.3847985,-0.17554164,0.024566311,0.49573988,-0.53683555,-0.49927902,0.26238742,-0.4887458,-0.42719945,-0.03306084,0.20676409,-0.099257395,-0.06272507,0.17421886,0.1386121,-0.01615124,-0.28793266,0.47466612,-0.48695248,0.09443502,0.11909868,-0.39472118,0.5742372,-0.06795706,0.009549999,-0.48702288,-0.256081,-0.053814035,-0.086273424,-0.3027377,-0.61256576,-0.43774804,0.6068211,-0.4790457,-0.12568337,-0.11714604,0.2683086,-0.059273984,0.07122805,0.5568138,-0.006201661,0.33196902,0.08643814,1.0503678,0.52748334,-0.16437013,-0.028387047,-0.53563946,-0.01836115,-0.14230566,-0.36057264,-0.51271003,0.15392011,0.2736826,-0.41465136
ABY84639,0.8059154,4.425236,-2.2537546,0.654302,0.3024914,0.30477846,1.2131935,-0.92361253,-0.5128122,-0.42202392,-0.43955046,-0.7712783,-0.25657088,-0.4838776,0.0069345674,-0.1051683,0.075919196,-0.55358845,0.08601832,-0.48529372,-0.5205831,-0.086568065,-1.0219531,0.23863873,-0.21474932,-0.21748482,0.015435277,-0.2904321,-0.2394076,0.018725734,-0.12899174,-0.08620946,-0.029732406,0.52652085,-0.34149167,0.24188472,0.09936596,-0.33065957,-0.021248782,-0.12453864,-0.09302488,-0.38691336,0.8014086,-0.21233116,-0.13354151,-0.12636912,0.21166216,-0.20555511,0.39924067,-0.57871413,-0.28839755,-0.03451582,-0.45549354,-0.2164884,-0.0076473835,0.044692755,0.011544444,-0.022263119,0.15631735,0.1531208,0.18108906,-0.032387864,0.20399326,-0.2034397,0.3464927,0.03111677,-0.2629376,0.5522276,0.11795664,0.06988484,0.21799101,0.03778171,-0.20692953,-0.014069842,-0.07810336,-0.49401703,-0.013907606,0.29315823,-0.31491828,-0.19055766,-0.090133026,0.18375032,-0.16862902,-0.14164022,0.38269928,0.10204789,0.2016828,-0.0651991,0.65221405,0.53388864,-0.17266211,-0.014783383,-0.18120873,0.11531943,-0.19205098,-0.47600296,-0.4706644,0.20715591,0.0061496105,-0.24409927
3TIA_A,0.7958776,0.27886027,-3.734496,0.27715564,0.20129035,-1.3597573,1.6684692,-0.61267895,-0.632886,-0.28453797,-1.1532072,-0.19355167,-0.085132346,-0.646702,0.003693353,-0.07551039,0.041925855,-0.63234854,0.15033583,-0.19335449,-0.26329824,0.028127175,-0.8131551,0.41129762,0.010952324,-0.3621964,-0.010217843,-0.51411206,-0.12531297,-0.05894085,-0.0673222,0.09150254,-0.21115105,0.4458371,-0.31412047,0.2959029,0.063937224,-0.08959528,-0.04807406,-0.26814848,0.069891594,-0.42467746,0.6645884,-0.08704433,0.045525588,-0.29283592,-0.04466183,0.00038843922,0.37631547,-0.4398371,-0.3474236,0.106582046,-0.42130005,-0.32518107,-0.025461208,0.122918904,-0.038981054,-0.081690945,0.13312599,0.09811777,0.066779606,-0.20185132,0.32754558,-0.31274688,0.12039059,0.06133309,-0.3355737,0.5011918,0.007011015,0.061538614,-0.25112727,-0.14260449,-0.16074106,-0.085242234,-0.16268572,-0.4965792,-0.26402882,0.41852537,-0.35725793,-0.17991027,-0.05136735,0.19539721,-0.09337667,-0.04753624,0.38366938,0.039445437,0.26545736,0.051315088,0.75896466,0.4905197,-0.14464329,-0.054628238,-0.33050686,0.023319852,-0.14516792,-0.33040652,-0.42407915,0.15554897,0.16127072,-0.307083
AAB03573,0.9067965,2.867719,-3.1845171,0.34675428,0.18341051,-0.19234827,1.4267939,-0.97223675,-0.5907079,-0.47202623,-0.743055,-0.59330577,-0.25780976,-0.59843445,0.018748771,-0.08947885,0.016799819,-0.67021245,0.1469838,-0.45211625,-0.51697916,-0.020934246,-1.0944782,0.38518125,-0.14226611,-0.32929215,0.036484465,-0.474589,-0.2040966,-0.03169572,-0.1482879,-0.018274803,-0.120101415,0.6090573,-0.39925092,0.33873293,0.09271929,-0.28828976,-0.052475024,-0.19695318,-0.033661257,-0.5061572,0.8980923,-0.22882013,-0.069541395,-0.20180646,0.108039126,-0.17351262,0.48141253,-0.64504474,-0.39369708,0.041948624,-0.53019285,-0.30928925,0.0018954042,0.10617469,-0.035217687,-0.06973171,0.17661151,0.17692186,0.14590843,-0.09860157,0.30259323,-0.3153903,0.30779302,0.03722406,-0.34816864,0.61306447,0.072556935,0.04292628,0.04597333,-0.028886348,-0.18696924,-0.03382217,-0.15097378,-0.60438544,-0.156574,0.45193374,-0.41428736,-0.17780589,-0.10800316,0.24232446,-0.19101769,-0.107360795,0.49872917,0.098354004,0.24592157,-0.015373571,0.8933269,0.60405976,-0.18619801,-0.015040191,-0.33496764,0.10006625,-0.22736892,-0.5192011,-0.56444967,0.20802361,0.08792772,-0.31496596
2O23_A,0.873928,2.2865229,-3.2531114,0.31244606,0.20799205,-0.43396592,1.4578325,-0.88427114,-0.5997847,-0.42474782,-0.8116036,-0.5014387,-0.21396981,-0.601245,0.013715876,-0.096841976,0.026627257,-0.6593366,0.14862534,-0.392872,-0.46111926,-0.015835522,-1.0186639,0.37660867,-0.11431862,-0.3292989,0.02781468,-0.477278,-0.18566212,-0.03752081,-0.12656106,0.024397247,-0.1498074,0.5612402,-0.37062186,0.3259306,0.0824884,-0.24111623,-0.05198837,-0.20980196,-0.016106782,-0.48736235,0.84376836,-0.20172873,-0.049648546,-0.22126527,0.07706276,-0.13867638,0.4471691,-0.607344,-0.3848282,0.07126305,-0.50455475,-0.3082085,-0.0064218757,0.11031501,-0.03131323,-0.06308087,0.16301927,0.1620334,0.12954842,-0.10899557,0.3122136,-0.3141059,0.26839343,0.04816277,-0.34433722,0.5868035,0.06788512,0.047103617,-0.012214418,-0.060655348,-0.17315945,-0.046076454,-0.16163735,-0.57897246,-0.17513192,0.43409443,-0.40647703,-0.1751292,-0.098213404,0.22997338,-0.15786591,-0.08922934,0.4780669,0.08466143,0.2482202,-0.007961815,0.85345376,0.5705059,-0.1730662,-0.019434858,-0.3322855,0.08456205,-0.20273252,-0.4751913,-0.51589644,0.20034774,0.10098484,-0.31545597
Q9PPP5,0.8846817,2.4107997,-3.4391005,0.34860513,0.19895777,-0.4986348,1.4805565,-0.89299875,-0.6094936,-0.42854023,-0.8334877,-0.49357212,-0.21110848,-0.6051958,0.008916347,-0.09386149,0.019838968,-0.6670528,0.15072598,-0.39192474,-0.4632952,-0.005888885,-1.0302817,0.38766196,-0.107944384,-0.34000072,0.024077946,-0.4938724,-0.18420863,-0.035918843,-0.1310375,0.024926031,-0.15935944,0.5684271,-0.37276083,0.32766175,0.0870011,-0.23939963,-0.0523464,-0.21502164,-0.009110631,-0.49549258,0.8493005,-0.20269507,-0.047031134,-0.231862,0.070691936,-0.1357382,0.45556167,-0.6136855,-0.39073393,0.072295696,-0.51164263,-0.31018308,-0.008336829,0.11587082,-0.03955196,-0.07261658,0.16418397,0.15655504,0.13435507,-0.11864143,0.31946558,-0.3180007,0.26019713,0.04582735,-0.35483482,0.58539647,0.058101535,0.050582077,-0.025680657,-0.06078202,-0.17835854,-0.04985908,-0.16681258,-0.5885007,-0.18594746,0.4463188,-0.41654003,-0.17834476,-0.100459695,0.23226832,-0.16565219,-0.08724299,0.48249573,0.08121376,0.25276154,-0.0029298353,0.8719324,0.5778435,-0.17352574,-0.022397233,-0.34484723,0.08046461,-0.21057989,-0.48144737,-0.52333623,0.20050989,0.10810963,-0.32224777
2A4M_C,0.9688888,0.46362913,-4.292255,-0.013699436,0.14391904,-1.0461702,1.7120864,-0.8814927,-0.7078181,-0.44367027,-1.1742002,-0.27867404,-0.17903005,-0.74038213,0.013586184,-0.123978935,-0.03225542,-0.7811652,0.2100877,-0.3370647,-0.425114,0.06647173,-1.0419348,0.5227108,-0.018605668,-0.43143874,0.03367568,-0.66921103,-0.14347583,-0.08966954,-0.12838982,0.1251608,-0.28663248,0.6196503,-0.400132,0.4120269,0.07330556,-0.160424,-0.083277404,-0.29324183,0.0456782,-0.60529804,0.91304183,-0.20501702,0.02014777,-0.30500075,-0.016990451,-0.08196246,0.50676215,-0.67496175,-0.49402303,0.1632672,-0.56614214,-0.3902334,-0.01595507,0.15625179,-0.09186619,-0.08330017,0.18305255,0.17920043,0.10164778,-0.18608335,0.42758238,-0.44664848,0.21099554,0.060576584,-0.42403534,0.6416287,0.006389912,0.039711583,-0.22579241,-0.16190611,-0.119003,-0.062197942,-0.25649694,-0.6681055,-0.31431037,0.5744235,-0.51060146,-0.16091341,-0.12256179,0.28195256,-0.16018105,-0.042705327,0.6010599,0.06862242,0.2991114,0.02733576,1.0756019,0.6184633,-0.19247562,-0.03276764,-0.4790383,0.059234366,-0.21217346,-0.47683197,-0.57578695,0.19172435,0.19825329,-0.3872148
Q2PCB5,0.9138372,1.7967792,-3.7520201,0.38536704,0.17575808,-0.83035123,1.6486478,-0.8810533,-0.66338986,-0.42480808,-1.0194291,-0.4526052,-0.20740338,-0.6873969,0.022263322,-0.10931521,0.0021145414,-0.7258048,0.18281358,-0.36517617,-0.4580571,0.028517086,-1.0436622,0.4414951,-0.077556804,-0.38362142,0.020379717,-0.56724715,-0.17843845,-0.051739346,-0.14071466,0.054760743,-0.1841798,0.5849196,-0.3962444,0.35914484,0.09602256,-0.22912882,-0.05658239,-0.26786,-0.00014090851,-0.527564,0.8748142,-0.18646778,-0.024788132,-0.2580704,0.048469357,-0.104888186,0.45957464,-0.62523043,-0.4210732,0.08000065,-0.53187066,-0.3425215,-0.011717415,0.11793141,-0.052266788,-0.089069955,0.16557014,0.16206433,0.13983041,-0.14666054,0.35314038,-0.35814586,0.23237868,0.03858153,-0.38954303,0.61171216,0.047236778,0.058897354,-0.1016064,-0.10233941,-0.16854504,-0.060608264,-0.1838392,-0.616466,-0.2260217,0.48612607,-0.45163003,-0.18620372,-0.09186222,0.25098437,-0.1715655,-0.09521002,0.51348656,0.09001196,0.2671426,0.008236388,0.9416965,0.6028609,-0.18753497,-0.039089292,-0.37965444,0.08012063,-0.21312304,-0.46976954,-0.5459221,0.19386975,0.13823801,-0.33475846
Q9EPR9,0.916109,-2.2759461,-5.001029,-0.4396855,0.1558382,-1.9371632,1.8493755,-0.61446327,-0.73541677,-0.3440215,-1.5304214,0.15763432,-0.034625903,-0.770568,-0.01830754,-0.12135939,-0.035611995,-0.76186603,0.22315948,-0.13804686,-0.20052585,0.11242624,-0.8139217,0.5968431,0.13908066,-0.4663499,0.014445142,-0.72114146,-0.04712358,-0.1460752,-0.036175244,0.253861,-0.43049598,0.5336071,-0.32762256,0.43250787,0.0071117855,0.05471538,-0.108129404,-0.3314783,0.15665598,-0.5826968,0.75828916,-0.13314214,0.13842072,-0.3932158,-0.17503901,0.03477046,0.48513874,-0.5510218,-0.51051986,0.2758671,-0.49254546,-0.4352366,-0.04240164,0.20214504,-0.10501396,-0.05056479,0.17381378,0.14220136,-0.007888164,-0.2892619,0.49233693,-0.50345653,0.08700364,0.12073651,-0.40209997,0.58229196,-0.06826074,0.021640714,-0.5092485,-0.27961385,-0.03480061,-0.08753083,-0.32170582,-0.6202684,-0.43827423,0.6019425,-0.50018686,-0.1253281,-0.1189448,0.2709055,-0.044252075,0.0732399,0.5758143,-0.005620339,0.33336952,0.07689025,1.0646054,0.52107656,-0.16863513,-0.03181819,-0.54122317,-0.01968428,-0.13075043,-0.3477732,-0.5012469,0.15283765,0.28122035,-0.4198125
Q5U7L7,0.85247093,2.2035089,-3.41155,0.53863907,0.24771392,-0.77624536,1.6185122,-0.80319476,-0.6386995,-0.3746137,-0.95935315,-0.4814455,-0.18162215,-0.6513175,0.018614836,-0.12269153,0.0342362,-0.67421025,0.15938377,-0.34176126,-0.4262279,0.0070024966,-0.9636162,0.37568116,-0.08915414,-0.33844486,0.0063406806,-0.4938105,-0.18088897,-0.034831673,-0.12120675,0.053030964,-0.15958999,0.52044344,-0.3584516,0.31495756,0.094701014,-0.22238299,-0.043403823,-0.25316912,-0.020744253,-0.46155652,0.8050622,-0.16051814,-0.040080793,-0.23490065,0.075610586,-0.09734269,0.39820284,-0.5729413,-0.36980137,0.05974452,-0.48602164,-0.30804792,-0.023075644,0.090843536,-0.027587904,-0.06735915,0.14801043,0.14392091,0.14896974,-0.12336653,0.3190054,-0.30832535,0.22392781,0.038676944,-0.35235125,0.5731479,0.06578082,0.07821328,-0.06184931,-0.094165936,-0.17181899,-0.05966508,-0.15792409,-0.5548918,-0.17120032,0.4005827,-0.40762094,-0.19219528,-0.07275726,0.21771762,-0.14006187,-0.10479067,0.44983593,0.0897841,0.24706125,-0.009584109,0.81267333,0.5549768,-0.17598417,-0.045168325,-0.3094972,0.07838656,-0.18105823,-0.42054647,-0.47642663,0.18598685,0.109111264,-0.30065438
P17443,0.878637,0.74948347,-3.7729936,0.07398259,0.20459767,-1.0529068,1.591873,-0.7768415,-0.65992206,-0.37603545,-1.0510038,-0.2818768,-0.14630477,-0.66674507,0.009044097,-0.11951711,0.01186931,-0.70211166,0.17809404,-0.29692194,-0.38126844,0.025351807,-0.9351619,0.42832297,-0.045009255,-0.37557814,0.021795413,-0.57303154,-0.14702807,-0.06638021,-0.105259866,0.1265732,-0.25196156,0.52941924,-0.34842664,0.34647068,0.06489735,-0.15035436,-0.06641516,-0.2613116,0.0325866,-0.52538365,0.813836,-0.1748084,0.0035539132,-0.28464994,-0.0056407996,-0.07139571,0.4290385,-0.5995353,-0.42754364,0.15970951,-0.5069043,-0.34420577,-0.017671729,0.13838524,-0.054826662,-0.06546237,0.15420069,0.1552075,0.09741459,-0.14903024,0.3760749,-0.37553257,0.196585,0.068124175,-0.37926146,0.5781739,0.036806162,0.045974664,-0.17761293,-0.14687951,-0.133244,-0.06798643,-0.22107518,-0.59284145,-0.26388323,0.4791987,-0.44878557,-0.16480568,-0.098099686,0.238673,-0.120357424,-0.04789976,0.5164821,0.062447198,0.2734099,0.017700087,0.9087261,0.55353516,-0.16273282,-0.028261602,-0.3981569,0.05801868,-0.18011582,-0.42704034,-0.47998527,0.19255382,0.16104047,-0.35010323
Q9XAY4,0.85403556,2.4138517,-3.098965,0.32152653,0.22309287,-0.36724305,1.4082726,-0.86884695,-0.5842871,-0.41424328,-0.7580732,-0.5106828,-0.20895356,-0.57386416,0.00990082,-0.0939017,0.036641784,-0.63755375,0.13916743,-0.39025843,-0.45564148,-0.028354067,-0.9999242,0.35119894,-0.123917945,-0.31360477,0.026038637,-0.44911486,-0.18729727,-0.030969534,-0.12124469,0.021994876,-0.14072195,0.5428679,-0.35789764,0.3102541,0.07995187,-0.2417206,-0.04815253,-0.19633341,-0.020246428,-0.46903038,0.82325375,-0.1996507,-0.05699061,-0.21455786,0.082712285,-0.14259803,0.43363297,-0.59411216,-0.36918584,0.069916,-0.49153233,-0.29452005,-0.0065348633,0.107788354,-0.022384617,-0.05770139,0.15725277,0.15666838,0.12913814,-0.09787805,0.29913226,-0.2949936,0.2698555,0.05099767,-0.33257863,0.57221174,0.075980134,0.047291946,0.008830702,-0.05214319,-0.17701897,-0.046477485,-0.15398668,-0.5632176,-0.1599029,0.4119207,-0.39215824,-0.1747798,-0.09590343,0.22023208,-0.14971486,-0.08821895,0.4590964,0.08199521,0.24187228,-0.011910808,0.81578535,0.5555882,-0.16571967,-0.01567654,-0.31374708,0.084345214,-0.19730759,-0.46990165,-0.4955499,0.20219538,0.08965025,-0.3083888
4BB2_A,0.94763505,0.26373377,-4.567807,0.29536015,0.14517017,-1.5167308,1.9354581,-0.78438437,-0.74518055,-0.3861505,-1.3890278,-0.24498664,-0.14317411,-0.80871195,0.022127109,-0.122805096,-0.030337824,-0.7929022,0.21832825,-0.26546103,-0.36241624,0.10659784,-0.99081373,0.5568615,0.039239578,-0.45577267,0.0025723474,-0.6895696,-0.13190962,-0.09105563,-0.118216224,0.11155432,-0.27195308,0.58665425,-0.40125206,0.4038585,0.09281155,-0.12986754,-0.0715981,-0.34843367,0.06266732,-0.55873173,0.8489592,-0.13431522,0.0542116,-0.32471836,-0.033804864,-0.015519973,0.4728432,-0.5909587,-0.46248266,0.108152635,-0.53099483,-0.39975,-0.033441067,0.13232528,-0.09588023,-0.106184535,0.17322743,0.14404564,0.1106901,-0.24417436,0.42278582,-0.43379873,0.14355871,0.039062075,-0.4259793,0.619468,-0.02263034,0.07400884,-0.3158277,-0.18549897,-0.13227238,-0.078951664,-0.22653896,-0.62721014,-0.32638067,0.5522685,-0.4845969,-0.18639608,-0.08386696,0.26686376,-0.15585935,-0.06366486,0.53728825,0.06650072,0.30172694,0.04675938,1.0289582,0.6052943,-0.20203468,-0.073613614,-0.4508596,0.039761472,-0.19255678,-0.40332925,-0.5638874,0.15807077,0.21727292,-0.361667
1CQP_A,0.8819908,3.0954022,-3.095162,0.44585258,0.21617527,-0.24239583,1.4541177,-0.9331298,-0.5873063,-0.44497705,-0.7500858,-0.5956142,-0.23994273,-0.59445906,0.017296087,-0.097094476,0.028390076,-0.6537216,0.1392646,-0.43476555,-0.49594456,-0.022590974,-1.0567526,0.36642674,-0.13616362,-0.31531045,0.027190823,-0.45331252,-0.20195565,-0.026893258,-0.1374641,-0.017233113,-0.11568575,0.5805346,-0.38280413,0.3223073,0.09435085,-0.27795416,-0.04746812,-0.19849129,-0.037839796,-0.47838005,0.86554307,-0.21203887,-0.069299094,-0.19612451,0.11546914,-0.1616125,0.45505527,-0.6183635,-0.37246022,0.03139478,-0.50967723,-0.2982561,-0.005409262,0.093733564,-0.029558497,-0.06286426,0.16996165,0.1657046,0.14837371,-0.09833122,0.2931068,-0.29919174,0.29547802,0.035385758,-0.33450985,0.597833,0.07388246,0.054720912,0.046266396,-0.029904183,-0.1869924,-0.034855563,-0.1406988,-0.57646674,-0.13965961,0.41757,-0.39582103,-0.18245447,-0.09794984,0.228506,-0.17836085,-0.110383146,0.47113466,0.096759245,0.24027513,-0.020366076,0.84040546,0.58388627,-0.18322404,-0.022520846,-0.3092767,0.09510832,-0.21105738,-0.49113446,-0.5360831,0.19876936,0.08209564,-0.3014605
4BB2_B,0.66024536,5.7944603,-1.138522,0.7976213,0.4098313,1.038983,0.82538974,-0.84843373,-0.3908062,-0.3447162,-0.0021067928,-0.8498286,-0.22508599,-0.3249686,-0.006945686,-0.08475988,0.1594251,-0.4209842,0.033230286,-0.49675992,-0.49028373,-0.20056947,-0.89365304,0.07461644,-0.26707608,-0.10496657,0.008423393,-0.0950089,-0.27023914,0.041668463,-0.069151126,-0.11923931,0.040542096,0.41283533,-0.2666787,0.16498923,0.08707369,-0.33640826,0.0027644816,-0.026252368,-0.12515503,-0.2858927,0.6781557,-0.205479,-0.16274093,-0.040341478,0.2662956,-0.23124811,0.33068082,-0.48747307,-0.17611142,-0.058338217,-0.36743543,-0.13078335,0.019910587,0.019885825,0.072941825,0.018100094,0.13090688,0.133431,0.12859319,0.034753457,0.11255119,-0.10500122,0.37680644,0.054770455,-0.15681182,0.51565903,0.18719442,0.05150707,0.35795537,0.10781302,-0.22372176,-0.0022337614,0.00021599467,-0.37648615,0.09016542,0.15239657,-0.17853421,-0.1914816,-0.06853765,0.1406996,-0.1398655,-0.13295852,0.27409214,0.1013134,0.17603436,-0.095406495,0.38537613,0.4491444,-0.14287585,0.012388898,-0.062354527,0.11650585,-0.13141699,-0.44669917,-0.3632248,0.18005615,-0.06374232,-0.20515008
1XO2_B,0.93608356,-0.07685778,-4.656445,0.19605717,0.1503251,-1.6318344,1.9571705,-0.7600922,-0.75078106,-0.37755847,-1.4297165,-0.18661839,-0.124975584,-0.8011176,0.007090213,-0.122828335,-0.01244462,-0.7858139,0.2138876,-0.24910632,-0.34791312,0.09368681,-0.95882905,0.53934795,0.040155012,-0.4535997,0.0070126737,-0.69642127,-0.12936968,-0.08749222,-0.113298245,0.14186096,-0.3017251,0.56891835,-0.38862956,0.3923818,0.08549795,-0.1022849,-0.06920391,-0.3450241,0.07150891,-0.57356954,0.8367746,-0.1373424,0.062154483,-0.3312703,-0.048707202,-0.01673971,0.46272495,-0.5921136,-0.47179395,0.14362308,-0.53102535,-0.39216486,-0.02796901,0.1479262,-0.09053824,-0.11168578,0.1661067,0.14008881,0.09236745,-0.23466678,0.4311123,-0.44085452,0.1324828,0.051845964,-0.42862535,0.6130308,-0.026579214,0.06407661,-0.33389455,-0.20064281,-0.1331616,-0.08092001,-0.24043919,-0.62543845,-0.33933792,0.55950683,-0.48814186,-0.17997524,-0.08445645,0.2660738,-0.15117171,-0.047639214,0.5371979,0.06672245,0.31460354,0.053682547,1.0273046,0.60435265,-0.19363253,-0.073161,-0.46530354,0.033620287,-0.18988632,-0.39716455,-0.54423946,0.16056289,0.22478259,-0.36928433
Q9EQ79,0.8885694,-1.1556842,-4.39192,-0.27238762,0.14056236,-1.485629,1.6842232,-0.67745465,-0.6746354,-0.35335883,-1.2857301,-0.017127134,-0.08337097,-0.6980501,-0.0052752444,-0.0859472,-0.013798696,-0.709436,0.19017816,-0.19789411,-0.2597364,0.06812664,-0.8656985,0.5260209,0.06615898,-0.42454982,0.019110408,-0.63717145,-0.0864875,-0.11098917,-0.061337214,0.16455513,-0.3271832,0.5291934,-0.33795536,0.38445324,0.029788239,-0.029076843,-0.088084616,-0.28425494,0.1213783,-0.53977484,0.7557482,-0.13924116,0.090448484,-0.34481806,-0.11815513,-0.003504549,0.47199923,-0.5350122,-0.45515922,0.20840925,-0.48324016,-0.3930885,-0.024111047,0.17934906,-0.08505738,-0.068638794,0.16676407,0.13739878,0.020074109,-0.24305883,0.421719,-0.42991373,0.12859844,0.09439979,-0.38007408,0.56049407,-0.03424073,0.021911275,-0.36893043,-0.20003465,-0.09416797,-0.079912305,-0.25712296,-0.5913473,-0.3721313,0.5537241,-0.44596583,-0.14110841,-0.10538402,0.24925269,-0.0860963,0.022845961,0.5206313,0.01413803,0.30384925,0.069011666,0.9738332,0.527772,-0.15762615,-0.028647743,-0.47123852,0.0070675523,-0.15884686,-0.381135,-0.49996608,0.16545162,0.22783184,-0.38317344
Q2HY42,0.85829914,2.2695057,-3.352902,0.5139753,0.23765507,-0.6965579,1.588241,-0.8251626,-0.63193464,-0.38614264,-0.9251485,-0.49832764,-0.19083656,-0.64200914,0.01812646,-0.116516225,0.032265455,-0.6726027,0.15729485,-0.35499927,-0.43722206,0.0033661993,-0.98117673,0.3764509,-0.09538088,-0.3375344,0.0095366165,-0.49042705,-0.18381198,-0.0339003,-0.12450168,0.042115454,-0.15304928,0.5308544,-0.36350968,0.3169296,0.09511311,-0.23089778,-0.043980964,-0.24576718,-0.021651829,-0.4657279,0.81505495,-0.1681333,-0.043532874,-0.23111494,0.079217516,-0.10651343,0.40895867,-0.57980365,-0.3712503,0.055663753,-0.49053258,-0.3073501,-0.0197722,0.09317552,-0.028519489,-0.06917894,0.15119489,0.14655392,0.14841631,-0.12135586,0.31590155,-0.30732274,0.2331727,0.037924185,-0.35185435,0.5769916,0.06620576,0.07391246,-0.048278548,-0.08452596,-0.17550178,-0.05717562,-0.15560122,-0.5602825,-0.16958497,0.4069334,-0.40694726,-0.19099447,-0.076679155,0.22031564,-0.14746325,-0.10525497,0.45336828,0.09036972,0.24701247,-0.009379056,0.82148576,0.56093776,-0.1767971,-0.04180006,-0.3121967,0.08042859,-0.18754515,-0.43320596,-0.48771718,0.18827371,0.10630058,-0.3022375
1PFU_A,0.9327465,-2.1547894,-5.1064215,-0.3339494,0.13044281,-2.0048747,1.9221835,-0.6387482,-0.7496373,-0.35472792,-1.5843943,0.12232818,-0.049738765,-0.80173993,-0.0076174466,-0.11417716,-0.044051737,-0.7843646,0.23314118,-0.14370468,-0.21336548,0.12600414,-0.851727,0.6243126,0.14844279,-0.48476723,0.013121701,-0.74134904,-0.052913595,-0.14713246,-0.04688083,0.22931431,-0.4102055,0.55448294,-0.3511,0.4428793,0.022484314,0.04112534,-0.1051662,-0.3507354,0.15920436,-0.5860859,0.775551,-0.122256055,0.14351143,-0.39545336,-0.17012903,0.040313687,0.49883676,-0.5506624,-0.51211166,0.24430887,-0.50235814,-0.44649062,-0.044755008,0.19380121,-0.11092288,-0.06987078,0.17951508,0.13990459,0.004761221,-0.3076136,0.49578878,-0.50610125,0.08173122,0.105388656,-0.41612577,0.593412,-0.07440024,0.028453356,-0.5173721,-0.27493376,-0.04875092,-0.089798525,-0.30805808,-0.6277727,-0.44708815,0.6191264,-0.5019833,-0.13655224,-0.110062346,0.2778619,-0.06522902,0.056162894,0.57446754,0.0015175948,0.33456045,0.08349242,1.089389,0.5450444,-0.17994592,-0.04525424,-0.54648733,-0.01673419,-0.14245196,-0.35150498,-0.5325082,0.1460549,0.28744006,-0.4163911
3D1X_A,0.7435218,5.2326407,-1.734599,0.875254,0.3842126,0.6698544,1.1380087,-0.89380217,-0.48307168,-0.3791937,-0.30623347,-0.86752534,-0.24688992,-0.45914838,0.011211634,-0.12429075,0.11949315,-0.523347,0.07408803,-0.5039874,-0.52887434,-0.12836733,-0.9648607,0.16860095,-0.24044023,-0.17160824,-0.0010688617,-0.21605812,-0.2700407,0.034410782,-0.11184983,-0.103674255,0.011384027,0.4783866,-0.319973,0.21569912,0.11107818,-0.35905772,-0.0051377043,-0.10967733,-0.1357055,-0.33949223,0.76562214,-0.20123309,-0.15234867,-0.07441053,0.26677328,-0.21074791,0.3502573,-0.54632133,-0.23049164,-0.07798341,-0.42457932,-0.18174052,0.0027105294,0.006912326,0.045549013,-0.009699882,0.14531678,0.14649354,0.18294284,-0.0013672574,0.15987697,-0.16510515,0.35982966,0.030232044,-0.21649371,0.5635232,0.15826698,0.08649925,0.28996918,0.06491434,-0.21902572,-0.002660405,-0.027300479,-0.44306457,0.059117675,0.20616856,-0.2599511,-0.21297872,-0.060265254,0.16667809,-0.16504554,-0.16614553,0.33854255,0.1273309,0.18886735,-0.09451291,0.5229552,0.51262546,-0.17966846,-0.016907165,-0.11004183,0.12844144,-0.15131244,-0.45113325,-0.42541522,0.17764398,-0.030401275,-0.21366957
Q5HGF6,0.92175233,-1.8804058,-4.857297,-0.3883481,0.12516713,-1.7716732,1.7990917,-0.6657393,-0.7163579,-0.36515832,-1.4530126,0.08731723,-0.064526334,-0.75289726,-0.011743768,-0.098769546,-0.034557655,-0.7547166,0.21676365,-0.17014821,-0.2334909,0.10033747,-0.8629754,0.5915334,0.11625756,-0.46324322,0.020095408,-0.70480376,-0.06357011,-0.13642074,-0.05118887,0.20844182,-0.38832217,0.55394787,-0.3464157,0.4261784,0.0190454,0.019478917,-0.102141805,-0.31702313,0.15109386,-0.5801045,0.77551097,-0.13927448,0.12621199,-0.37847295,-0.15783122,0.016588643,0.5019384,-0.5530537,-0.49976173,0.24395221,-0.49994522,-0.4283144,-0.032093585,0.19861135,-0.10248848,-0.06734572,0.17791666,0.14306131,2.4217163e-05,-0.28322393,0.47135732,-0.4851079,0.10606254,0.108559266,-0.4017651,0.5852999,-0.062019583,0.015602489,-0.46291828,-0.24547067,-0.061478674,-0.0842416,-0.29585811,-0.62291044,-0.4274181,0.6085014,-0.48506576,-0.13205428,-0.11644181,0.27224806,-0.07359037,0.054550856,0.5643779,0.0023380555,0.32801014,0.08070238,1.0630342,0.54097944,-0.17025135,-0.031200074,-0.5314377,-0.0095814215,-0.15199214,-0.37458602,-0.5283624,0.1568473,0.26796126,-0.41224113
